{"learner":{"attributes":{"scikit_learn":"{\"_estimator_type\": \"regressor\"}"},"feature_names":["0","1","2","3","4","5","6","7","8","9","10","11","12","13","14","15","16"],"feature_types":["float","float","float","float","float","float","float","float","float","float","float","float","float","float","float","float","float"],"gradient_booster":{"model":{"gbtree_model_param":{"num_parallel_tree":"1","num_trees":"100"},"iteration_indptr":[0,1,2,3,4,5,6,7,8,9,10,11,12,13,14,15,16,17,18,19,20,21,22,23,24,25,26,27,28,29,30,31,32,33,34,35,36,37,38,39,40,41,42,43,44,45,46,47,48,49,50,51,52,53,54,55,56,57,58,59,60,61,62,63,64,65,66,67,68,69,70,71,72,73,74,75,76,77,78,79,80,81,82,83,84,85,86,87,88,89,90,91,92,93,94,95,96,97,98,99,100],"tree_info":[0,0,0,0,0,0,0,0,0,0,0,0,0,0,0,0,0,0,0,0,0,0,0,0,0,0,0,0,0,0,0,0,0,0,0,0,0,0,0,0,0,0,0,0,0,0,0,0,0,0,0,0,0,0,0,0,0,0,0,0,0,0,0,0,0,0,0,0,0,0,0,0,0,0,0,0,0,0,0,0,0,0,0,0,0,0,0,0,0,0,0,0,0,0,0,0,0,0,0,0],"trees":[{"base_weights":[-6.9830574E-5,-1.1060816E4,2.8782225E4,-1.228144E4,-6.6321797E3,5.7933916E3,3.096408E4,-2.922444E2,-1.2722725E4,-1.264492E3,-8.747371E3,-1.3291283E2,8.213642E3,3.424968E4,2.6224025E4,-7.52732E3,2.982079E3,-1.6947307E4,-1.1904409E4,-9.907611E3,-5.445883E2,-1.5336836E4,-8.192467E3,-1.1097598E3,2.784955E4,1.1131711E4,5.219897E3,4.110856E4,3.0888424E4,2.6189271E4,2.2741414E4,-1.2468159E4,-4.3715005E3,3.8775479E3,-5.66226E3,-1.8578795E4,-1.5714369E4,-9.253573E3,-1.2927825E4,-8.149914E3,-1.1721157E4,1.9180535E3,-2.9857737E3,-1.6959219E4,-1.4377679E4,-8.655839E3,-5.0674883E3,-4.6909023E3,1.4862289E3,2.2706387E4,3.1309914E4,1.6415305E4,8.337559E3,4.484751E3,8.362216E3,3.8884746E4,4.5960965E4,2.922162E4,3.4527133E4,2.6921133E4,2.4089111E4,-4.64059E3,-3.219121E3,-4.94836E2,-1.7471124E3,2.124758E3,6.62893E2,2.0066886E3,-2.067615E3,-5.2108203E3,-5.7249824E3,-4.3480312E3,-4.8561724E3,-3.2076296E3,-2.0425387E3,-3.7223884E3,-4.4257124E3,-2.6324307E3,-1.5994662E3,-3.6281682E3,-1.7151725E3,1.4520504E3,2.1232365E2,-1.0569729E3,1.0552813E2,-5.181662E3,-2.7164478E3,-3.1042722E3,-4.3420757E3,-2.003275E3,-2.7521404E3,1.5903952E2,-1.5752416E3,-2.0955696E3,-7.434311E2,9.59237E2,-3.2244322E0,7.2035044E3,2.1720288E3,7.7141274E3,1.0770057E4,4.7261304E3,7.923431E3,1.7810209E3,3.4867666E3,3.4610376E2,2.5064575E3,1.0723033E4,1.328808E4,1.6169826E4,1.3078607E4,7.96301E3,1.0157495E4,1.115545E4,9.80569E3,5.391029E3,8.1398003E3,6.794999E3,7.827884E3],"categories":[],"categories_nodes":[],"categories_segments":[],"categories_sizes":[],"default_left":[0,0,0,0,0,0,0,0,0,0,0,0,0,0,0,0,0,0,0,0,0,0,0,0,0,0,0,0,0,0,0,0,0,0,0,0,0,0,0,0,0,0,0,0,0,0,0,0,0,0,0,0,0,0,0,0,0,0,0,0,0,0,0,0,0,0,0,0,0,0,0,0,0,0,0,0,0,0,0,0,0,0,0,0,0,0,0,0,0,0,0,0,0,0,0,0,0,0,0,0,0,0,0,0,0,0,0,0,0,0,0,0,0,0,0,0,0,0,0],"id":0,"left_children":[1,3,5,7,9,11,13,15,17,19,21,23,25,27,29,31,33,35,37,39,41,43,45,47,49,51,53,55,57,59,-1,61,63,65,67,69,71,73,75,77,79,81,83,85,87,89,91,93,95,97,99,101,103,105,-1,107,109,111,113,115,117,-1,-1,-1,-1,-1,-1,-1,-1,-1,-1,-1,-1,-1,-1,-1,-1,-1,-1,-1,-1,-1,-1,-1,-1,-1,-1,-1,-1,-1,-1,-1,-1,-1,-1,-1,-1,-1,-1,-1,-1,-1,-1,-1,-1,-1,-1,-1,-1,-1,-1,-1,-1,-1,-1,-1,-1,-1,-1],"loss_changes":[9.862348E13,1.2096603E12,4.313481E12,9.281617E11,5.4900792E11,1.0694351E11,1.2223712E12,1.4758732E11,5.847531E11,8.505226E10,1.2670835E11,5.9155608E10,4.6190035E10,1.0681592E12,5.3433336E10,3.0210335E10,3.3221964E10,5.493385E10,3.844436E11,3.2547062E9,7.58742E10,3.9467745E9,4.6285718E10,1.9446176E10,5.882593E8,3.9428424E10,4.3425513E10,1.628061E11,1.8782513E11,4.8750395E10,0E0,3.7758648E9,4.678623E9,2.0762694E10,6.167433E9,6.8749885E9,8.797553E9,1.3881704E11,9.6820265E10,8.9890816E8,1.0833592E9,2.2217402E10,1.1370484E10,2.3052288E9,5.0692096E8,2.8487844E10,4.2448486E9,4.445276E9,3.1073385E9,4.9235968E8,1.3007258E8,5.7073664E9,1.3772145E10,3.2657687E10,0E0,1.7624256E11,8.756553E10,2.643565E11,4.6629126E10,4.46232E10,2.338744E10,0E0,0E0,0E0,0E0,0E0,0E0,0E0,0E0,0E0,0E0,0E0,0E0,0E0,0E0,0E0,0E0,0E0,0E0,0E0,0E0,0E0,0E0,0E0,0E0,0E0,0E0,0E0,0E0,0E0,0E0,0E0,0E0,0E0,0E0,0E0,0E0,0E0,0E0,0E0,0E0,0E0,0E0,0E0,0E0,0E0,0E0,0E0,0E0,0E0,0E0,0E0,0E0,0E0,0E0,0E0,0E0,0E0,0E0],"parents":[2147483647,0,0,1,1,2,2,3,3,4,4,5,5,6,6,7,7,8,8,9,9,10,10,11,11,12,12,13,13,14,14,15,15,16,16,17,17,18,18,19,19,20,20,21,21,22,22,23,23,24,24,25,25,26,26,27,27,28,28,29,29,31,31,32,32,33,33,34,34,35,35,36,36,37,37,38,38,39,39,40,40,41,41,42,42,43,43,44,44,45,45,46,46,47,47,48,48,49,49,50,50,51,51,52,52,53,53,55,55,56,56,57,57,58,58,59,59,60,60],"right_children":[2,4,6,8,10,12,14,16,18,20,22,24,26,28,30,32,34,36,38,40,42,44,46,48,50,52,54,56,58,60,-1,62,64,66,68,70,72,74,76,78,80,82,84,86,88,90,92,94,96,98,100,102,104,106,-1,108,110,112,114,116,118,-1,-1,-1,-1,-1,-1,-1,-1,-1,-1,-1,-1,-1,-1,-1,-1,-1,-1,-1,-1,-1,-1,-1,-1,-1,-1,-1,-1,-1,-1,-1,-1,-1,-1,-1,-1,-1,-1,-1,-1,-1,-1,-1,-1,-1,-1,-1,-1,-1,-1,-1,-1,-1,-1,-1,-1,-1,-1],"split_conditions":[7.5E-1,5E-1,1.0325838E-1,2.5E-1,2.857143E-1,4.7728315E-2,1E0,1.720973E-1,1.0325838E-1,9.3620926E-2,9.3620926E-2,6.666667E-1,1E0,3.6734694E-1,1E0,1.0325838E-1,1E0,4.979348E-2,2.857143E-1,1.4285715E-1,1.4285715E-1,4.7728315E-2,1E0,3.832033E-2,1E0,3.6734694E-1,1E0,7.1428573E-1,7.1428573E-1,4.2060578E-1,2.2741414E4,4.589261E-2,3.6734694E-1,3.469388E-1,2.0651676E-1,3.0612245E-1,2.857143E-1,1E0,1E0,6.1266635E-2,6.666667E-1,4.0816326E-2,2.6530612E-1,6.666667E-1,3.0612245E-1,4.2857143E-1,1.4285715E-1,3.441946E-2,4.8979592E-1,1E0,5.714286E-1,9.3620926E-2,5.9201468E-2,5.9201468E-2,8.362216E3,7.1428573E-1,1.0204082E-1,7.1428573E-1,8.5714287E-1,1.2620468E-1,1E0,-4.64059E3,-3.219121E3,-4.94836E2,-1.7471124E3,2.124758E3,6.62893E2,2.0066886E3,-2.067615E3,-5.2108203E3,-5.7249824E3,-4.3480312E3,-4.8561724E3,-3.2076296E3,-2.0425387E3,-3.7223884E3,-4.4257124E3,-2.6324307E3,-1.5994662E3,-3.6281682E3,-1.7151725E3,1.4520504E3,2.1232365E2,-1.0569729E3,1.0552813E2,-5.181662E3,-2.7164478E3,-3.1042722E3,-4.3420757E3,-2.003275E3,-2.7521404E3,1.5903952E2,-1.5752416E3,-2.0955696E3,-7.434311E2,9.59237E2,-3.2244322E0,7.2035044E3,2.1720288E3,7.7141274E3,1.0770057E4,4.7261304E3,7.923431E3,1.7810209E3,3.4867666E3,3.4610376E2,2.5064575E3,1.0723033E4,1.328808E4,1.6169826E4,1.3078607E4,7.96301E3,1.0157495E4,1.115545E4,9.80569E3,5.391029E3,8.1398003E3,6.794999E3,7.827884E3],"split_indices":[2,2,0,2,5,0,6,0,0,0,0,1,6,5,2,0,1,0,5,5,5,0,1,0,16,5,2,4,3,0,0,0,5,5,0,5,5,15,11,0,1,5,5,1,5,5,3,0,5,3,3,0,0,0,0,3,5,4,3,0,16,0,0,0,0,0,0,0,0,0,0,0,0,0,0,0,0,0,0,0,0,0,0,0,0,0,0,0,0,0,0,0,0,0,0,0,0,0,0,0,0,0,0,0,0,0,0,0,0,0,0,0,0,0,0,0,0,0,0],"split_type":[0,0,0,0,0,0,0,0,0,0,0,0,0,0,0,0,0,0,0,0,0,0,0,0,0,0,0,0,0,0,0,0,0,0,0,0,0,0,0,0,0,0,0,0,0,0,0,0,0,0,0,0,0,0,0,0,0,0,0,0,0,0,0,0,0,0,0,0,0,0,0,0,0,0,0,0,0,0,0,0,0,0,0,0,0,0,0,0,0,0,0,0,0,0,0,0,0,0,0,0,0,0,0,0,0,0,0,0,0,0,0,0,0,0,0,0,0,0,0],"sum_hessian":[3.09789E5,2.23789E5,8.6E4,1.75434E5,4.8355E4,7.455E3,7.8545E4,6.228E3,1.69206E5,1.3669E4,3.4686E4,2.162E3,5.293E3,4.6386E4,3.2159E4,1.94E3,4.288E3,2.7454E4,1.41752E5,1.05E3,1.2619E4,2.692E3,3.1994E4,2.09E3,7.2E1,2.679E3,2.614E3,1.5252E4,3.1134E4,3.2138E4,2.1E1,7.55E2,1.185E3,3.886E3,4.02E2,1.1811E4,1.5643E4,3.9486E4,1.02266E5,5.36E2,5.14E2,6.282E3,6.337E3,9.94E2,1.698E3,2.7861E4,4.133E3,8.78E2,1.212E3,3.2E1,4E1,9.25E2,1.754E3,2.533E3,8.1E1,1.0465E4,4.787E3,2.1359E4,9.775E3,2.3824E4,8.314E3,2.74E2,4.81E2,4.13E2,7.72E2,1.329E3,2.557E3,3.6E1,3.66E2,3.487E3,8.324E3,4.376E3,1.1267E4,2.4858E4,1.4628E4,7.9595E4,2.2671E4,4.37E2,9.9E1,4.83E2,3.1E1,1.839E3,4.443E3,5.458E3,8.79E2,9.55E2,3.9E1,4.2E1,1.656E3,5.784E3,2.2077E4,1.31E2,4.002E3,4.3E2,4.48E2,5.65E2,6.47E2,2.9E1,3E0,2.1E1,1.9E1,8.7E2,5.5E1,1.015E3,7.39E2,1.362E3,1.171E3,6.625E3,3.84E3,1.094E3,3.693E3,1.3543E4,7.816E3,3.993E3,5.782E3,5.52E2,2.3272E4,4.846E3,3.468E3],"tree_param":{"num_deleted":"0","num_feature":"17","num_nodes":"119","size_leaf_vector":"1"}},{"base_weights":[4.1016635E-1,-7.7428896E3,2.0149863E4,-8.597241E3,-4.643154E3,3.7526453E3,2.1653018E4,-2.057546E2,-8.906105E3,-1.0369414E3,-6.216061E3,-8.102887E1,5.3903623E3,2.394738E4,1.833945E4,-6.0188823E3,1.8183805E3,-1.1763269E4,-8.308796E3,-7.019845E3,-5.425158E2,-1.0718998E4,-5.8174463E3,-7.777318E2,1.9876326E4,7.327679E3,3.464652E3,2.931375E4,2.1778096E4,1.749147E4,2.0028586E4,-9.512166E3,-4.119249E3,2.3806086E3,-3.9464873E3,-1.3114166E4,-1.0956218E4,-6.5331045E3,-9.064678E3,-5.2241045E3,-7.970755E3,1.3429017E3,-2.1685332E3,-1.1460655E4,-9.476812E3,-6.1503584E3,-3.5946902E3,-3.2868608E3,1.0411488E3,2.403049E4,1.691561E4,1.3141587E4,5.9791577E3,2.9247185E3,5.884145E3,3.3921176E4,2.7611275E4,2.055064E4,2.44608E4,1.9187875E4,1.524252E4,2.3106518E4,1.8576025E4,-4.0936907E3,-2.6167935E3,-4.4678317E2,-1.6211918E3,-3.9931122E2,9.9341876E2,-3.2940315E1,-1.963677E3,-3.9550193E3,-1.9099814E3,-3.0179705E3,-3.400677E3,-2.2623398E3,-1.446105E3,-2.6475566E3,-3.746207E3,-2.9830293E3,-1.4949009E3,-2.468894E3,-1.0583285E3,1.4077627E3,9.702275E1,-6.941024E1,-8.3387506E2,-3.4766306E3,-1.9048079E3,-2.432785E3,-2.9248403E3,-2.0410398E3,-1.5661046E3,-8.206199E2,-1.3724677E3,-1.468357E3,-5.208983E2,6.645521E2,-3.3054608E2,8.0772637E3,4.478984E3,4.7298247E3,1.0296661E4,3.4926758E3,4.608169E3,1.2146481E3,2.2141084E3,2.423489E2,1.6656732E3,1.0651259E4,6.85156E3,7.7836133E3,9.353354E3,5.613415E3,7.1335654E3,7.2579595E3,1.2668064E4,5.189757E3,6.566281E3,4.5444316E3,1.6229101E4,8.1541562E3,6.133916E3,5.4608555E3,8.954552E3],"categories":[],"categories_nodes":[],"categories_segments":[],"categories_sizes":[],"default_left":[0,0,0,0,0,0,0,0,0,0,0,0,0,0,0,0,0,0,0,0,0,0,0,0,0,0,0,0,0,0,0,0,0,0,0,0,0,0,0,0,0,0,0,0,0,0,0,0,0,0,0,0,0,0,0,0,0,0,0,0,0,0,0,0,0,0,0,0,0,0,0,0,0,0,0,0,0,0,0,0,0,0,0,0,0,0,0,0,0,0,0,0,0,0,0,0,0,0,0,0,0,0,0,0,0,0,0,0,0,0,0,0,0,0,0,0,0,0,0,0,0,0,0,0,0],"id":1,"left_children":[1,3,5,7,9,11,13,15,17,19,21,23,25,27,29,31,33,35,37,39,41,43,45,47,49,51,53,55,57,59,61,63,65,67,69,71,73,75,77,79,81,83,85,87,89,91,93,95,97,99,101,103,105,107,-1,109,111,113,115,117,119,121,123,-1,-1,-1,-1,-1,-1,-1,-1,-1,-1,-1,-1,-1,-1,-1,-1,-1,-1,-1,-1,-1,-1,-1,-1,-1,-1,-1,-1,-1,-1,-1,-1,-1,-1,-1,-1,-1,-1,-1,-1,-1,-1,-1,-1,-1,-1,-1,-1,-1,-1,-1,-1,-1,-1,-1,-1,-1,-1,-1,-1,-1,-1],"loss_changes":[4.83346E13,5.926153E11,2.1196293E12,4.5469506E11,2.7428042E11,4.534984E10,5.9848104E11,7.3304826E10,2.8867192E11,4.3441816E10,6.0373205E10,3.0090564E10,1.885574E10,5.4120153E11,4.582277E10,1.0638074E10,1.4986841E10,3.1751406E10,1.8778843E11,1.8725683E9,4.159556E10,2.4129372E9,2.2868394E10,9.54634E9,4.913582E8,1.9694346E10,2.2090095E10,1.0414142E11,1.0865554E11,8.161434E10,4.7708635E10,1.7280942E9,3.519406E9,1.4552371E10,4.0977485E9,5.024645E9,6.1158195E9,7.211608E10,8.035343E10,3.9534694E8,8.118026E8,2.1454508E10,8.622658E9,1.0455122E9,3.0461133E8,1.6305357E10,3.38355E9,2.182615E9,3.0542262E9,3.3538765E8,3.79306E8,1.3981532E9,5.512225E9,1.3672909E10,0E0,6.252318E10,5.734138E10,1.3462038E11,4.842796E10,6.20023E10,3.3062519E10,3.681131E10,3.0249058E10,0E0,0E0,0E0,0E0,0E0,0E0,0E0,0E0,0E0,0E0,0E0,0E0,0E0,0E0,0E0,0E0,0E0,0E0,0E0,0E0,0E0,0E0,0E0,0E0,0E0,0E0,0E0,0E0,0E0,0E0,0E0,0E0,0E0,0E0,0E0,0E0,0E0,0E0,0E0,0E0,0E0,0E0,0E0,0E0,0E0,0E0,0E0,0E0,0E0,0E0,0E0,0E0,0E0,0E0,0E0,0E0,0E0,0E0,0E0,0E0,0E0,0E0],"parents":[2147483647,0,0,1,1,2,2,3,3,4,4,5,5,6,6,7,7,8,8,9,9,10,10,11,11,12,12,13,13,14,14,15,15,16,16,17,17,18,18,19,19,20,20,21,21,22,22,23,23,24,24,25,25,26,26,27,27,28,28,29,29,30,30,31,31,32,32,33,33,34,34,35,35,36,36,37,37,38,38,39,39,40,40,41,41,42,42,43,43,44,44,45,45,46,46,47,47,48,48,49,49,50,50,51,51,52,52,53,53,55,55,56,56,57,57,58,58,59,59,60,60,61,61,62,62],"right_children":[2,4,6,8,10,12,14,16,18,20,22,24,26,28,30,32,34,36,38,40,42,44,46,48,50,52,54,56,58,60,62,64,66,68,70,72,74,76,78,80,82,84,86,88,90,92,94,96,98,100,102,104,106,108,-1,110,112,114,116,118,120,122,124,-1,-1,-1,-1,-1,-1,-1,-1,-1,-1,-1,-1,-1,-1,-1,-1,-1,-1,-1,-1,-1,-1,-1,-1,-1,-1,-1,-1,-1,-1,-1,-1,-1,-1,-1,-1,-1,-1,-1,-1,-1,-1,-1,-1,-1,-1,-1,-1,-1,-1,-1,-1,-1,-1,-1,-1,-1,-1,-1,-1,-1,-1],"split_conditions":[7.5E-1,5E-1,9.3620926E-2,2.5E-1,3.0612245E-1,4.7728315E-2,1E0,1.5488756E-1,1.0899495E-1,9.3620926E-2,9.93575E-2,6.666667E-1,1E0,3.265306E-1,7.1428573E-1,6.1266635E-2,1E0,4.7728315E-2,3.0612245E-1,1.0204082E-1,1.4285715E-1,5.3464893E-2,1E0,3.832033E-2,4.2857143E-1,2.0408164E-1,1E0,1.0204082E-1,7.1428573E-1,4.2857143E-1,8.5714287E-1,3.2583755E-2,3.469388E-1,2.1408904E-1,4.2857143E-1,6.666667E-1,3.0612245E-1,1E0,1E0,3.3333334E-1,6.666667E-1,2.391005E-1,2.4277191E-1,6.666667E-1,4.2857143E-1,5.714286E-1,7.1428573E-1,3.441946E-2,1E0,3.441946E-2,1E0,1E0,5.3464893E-2,5.9201468E-2,5.884145E3,5.335016E-1,7.1428573E-1,7.1428573E-1,1E0,7.1428573E-1,1E0,4.2857143E-1,1E0,-4.0936907E3,-2.6167935E3,-4.4678317E2,-1.6211918E3,-3.9931122E2,9.9341876E2,-3.2940315E1,-1.963677E3,-3.9550193E3,-1.9099814E3,-3.0179705E3,-3.400677E3,-2.2623398E3,-1.446105E3,-2.6475566E3,-3.746207E3,-2.9830293E3,-1.4949009E3,-2.468894E3,-1.0583285E3,1.4077627E3,9.702275E1,-6.941024E1,-8.3387506E2,-3.4766306E3,-1.9048079E3,-2.432785E3,-2.9248403E3,-2.0410398E3,-1.5661046E3,-8.206199E2,-1.3724677E3,-1.468357E3,-5.208983E2,6.645521E2,-3.3054608E2,8.0772637E3,4.478984E3,4.7298247E3,1.0296661E4,3.4926758E3,4.608169E3,1.2146481E3,2.2141084E3,2.423489E2,1.6656732E3,1.0651259E4,6.85156E3,7.7836133E3,9.353354E3,5.613415E3,7.1335654E3,7.2579595E3,1.2668064E4,5.189757E3,6.566281E3,4.5444316E3,1.6229101E4,8.1541562E3,6.133916E3,5.4608555E3,8.954552E3],"split_indices":[2,2,0,2,5,0,6,0,0,0,0,1,6,5,3,0,1,0,5,5,5,0,1,0,5,5,2,5,3,3,3,0,5,0,5,1,5,15,7,16,1,0,0,1,5,3,5,0,6,0,2,16,0,0,0,0,4,4,1,4,2,4,1,0,0,0,0,0,0,0,0,0,0,0,0,0,0,0,0,0,0,0,0,0,0,0,0,0,0,0,0,0,0,0,0,0,0,0,0,0,0,0,0,0,0,0,0,0,0,0,0,0,0,0,0,0,0,0,0,0,0,0,0,0,0],"split_type":[0,0,0,0,0,0,0,0,0,0,0,0,0,0,0,0,0,0,0,0,0,0,0,0,0,0,0,0,0,0,0,0,0,0,0,0,0,0,0,0,0,0,0,0,0,0,0,0,0,0,0,0,0,0,0,0,0,0,0,0,0,0,0,0,0,0,0,0,0,0,0,0,0,0,0,0,0,0,0,0,0,0,0,0,0,0,0,0,0,0,0,0,0,0,0,0,0,0,0,0,0,0,0,0,0,0,0,0,0,0,0,0,0,0,0,0,0,0,0,0,0,0,0,0,0],"sum_hessian":[3.09789E5,2.23789E5,8.6E4,1.75434E5,4.8355E4,7.222E3,7.8778E4,6.228E3,1.69206E5,1.4686E4,3.3669E4,2.162E3,5.06E3,4.6544E4,3.2234E4,1.608E3,4.62E3,2.9254E4,1.39952E5,1.12E3,1.3566E4,2.736E3,3.0933E4,2.09E3,7.2E1,2.521E3,2.539E3,1.3395E4,3.3149E4,2.1468E4,1.0766E4,5.65E2,1.043E3,4.21E3,4.1E2,1.0935E4,1.8319E4,4.179E4,9.8162E4,3.9E2,7.3E2,6.282E3,7.284E3,1.708E3,1.028E3,2.6902E4,4.031E3,8.78E2,1.212E3,2.7E1,4.5E1,4.73E2,2.048E3,2.458E3,8.1E1,3.609E3,9.786E3,2.2749E4,1.04E4,1.2233E4,9.235E3,3.447E3,7.319E3,8.8E1,4.77E2,3.43E2,7E2,8.44E2,3.366E3,1.66E2,2.44E2,1.0823E4,1.12E2,5.456E3,1.2863E4,2.6305E4,1.5485E4,9.1746E4,6.416E3,1.7E1,3.73E2,6.89E2,4.1E1,1.465E3,4.817E3,1.747E3,5.537E3,1.665E3,4.3E1,1.76E2,8.52E2,1.58E4,1.1102E4,2.15E3,1.881E3,4.3E2,4.48E2,7.83E2,4.29E2,1.9E1,8E0,4.4E1,1E0,2.86E2,1.87E2,8.63E2,1.185E3,1.362E3,1.096E3,3.156E3,4.53E2,6.676E3,3.11E3,1.4496E4,8.253E3,1.0248E4,1.52E2,7.202E3,5.031E3,9.214E3,2.1E1,1.358E3,2.089E3,7.087E3,2.32E2],"tree_param":{"num_deleted":"0","num_feature":"17","num_nodes":"125","size_leaf_vector":"1"}},{"base_weights":[6.6555136E-1,-5.4202754E3,1.4106924E4,-6.494382E3,-4.1912656E3,3.0245159E3,1.5212434E4,-1.4566255E2,-6.8437E3,-7.694301E2,-4.751402E3,1.4546311E3,5.6131323E3,1.6836543E4,1.2879219E4,-4.091028E3,1.3254049E3,-7.84932E3,-5.3110806E3,-1.9197954E3,5.575083E2,-7.70676E3,-4.5019414E3,1.1955846E3,1.5646766E4,7.101504E3,3.9108381E3,1.974131E4,1.44180625E4,1.6198353E4,1.2614425E4,-6.305607E3,-2.2998728E3,2.69643E3,-4.111129E2,-9.424563E3,-7.618571E3,-7.125199E1,-5.713543E3,9.6506476E2,-2.2857075E3,-3.766585E3,9.585806E2,-8.759641E3,-7.2296206E3,-5.287707E3,-3.5920803E3,-1.9434207E3,2.1882056E3,2.1320416E4,1.3747945E4,9.895752E3,6.0320737E3,3.737373E3,4.058092E3,1.3078309E4,2.055621E4,1.4239058E4,2.7721658E4,1.8545059E4,1.5403907E4,1.3087324E4,1.0942728E4,-1.3758718E3,-2.1545828E3,-8.883212E2,1.4918445E2,1.0142695E3,-5.43216E2,-4.6033167E2,6.308911E2,-3.0912634E3,-2.756231E3,-2.0007844E3,-2.3969236E3,3.7756775E2,-9.5820245E2,-2.5003572E3,-1.6328993E3,1.4333309E3,-4.5300793E2,-1.7122689E3,-5.9607556E2,-1.619957E3,-8.730481E2,1.01293536E3,5.705782E1,-2.6809343E3,-1.1297699E3,-1.9339377E3,-2.2847725E3,-1.7500194E3,-1.2245997E3,-6.427345E2,-1.2991968E3,-1.2445563E2,-9.9220483E2,5.992738E2,4.103745E3,5.026585E3,8.221474E3,2.731754E3,5.030931E3,4.64729E3,2.7523015E3,1.5240527E3,2.5285684E3,1.0818857E3,4.5569844E3,3.7159465E3,9.251554E3,3.0299104E3,6.328083E3,2.8528806E3,4.4488867E3,7.600088E2,8.429371E3,4.0443477E3,5.6987544E3,4.2147837E3,5.1473257E3,3.8991997E3,6.103575E3,2.8114812E3,3.7918435E3],"categories":[],"categories_nodes":[],"categories_segments":[],"categories_sizes":[],"default_left":[0,0,0,0,0,0,0,0,0,0,0,0,0,0,0,0,0,0,0,0,0,0,0,0,0,0,0,0,0,0,0,0,0,0,0,0,0,0,0,0,0,0,0,0,0,0,0,0,0,0,0,0,0,0,0,0,0,0,0,0,0,0,0,0,0,0,0,0,0,0,0,0,0,0,0,0,0,0,0,0,0,0,0,0,0,0,0,0,0,0,0,0,0,0,0,0,0,0,0,0,0,0,0,0,0,0,0,0,0,0,0,0,0,0,0,0,0,0,0,0,0,0,0,0,0],"id":2,"left_children":[1,3,5,7,9,11,13,15,17,19,21,23,25,27,29,31,33,35,37,39,41,43,45,47,49,51,53,55,57,59,61,63,65,67,69,71,73,75,77,79,81,83,85,87,89,91,93,95,97,99,101,103,105,107,-1,109,111,113,115,117,119,121,123,-1,-1,-1,-1,-1,-1,-1,-1,-1,-1,-1,-1,-1,-1,-1,-1,-1,-1,-1,-1,-1,-1,-1,-1,-1,-1,-1,-1,-1,-1,-1,-1,-1,-1,-1,-1,-1,-1,-1,-1,-1,-1,-1,-1,-1,-1,-1,-1,-1,-1,-1,-1,-1,-1,-1,-1,-1,-1,-1,-1,-1,-1],"loss_changes":[2.3689467E13,2.953954E11,1.0536123E12,2.6483727E11,2.0004563E11,3.169783E10,2.9611577E11,3.6157907E10,1.7441174E11,2.241414E10,6.608886E10,1.784136E10,7.433814E9,3.235937E11,2.800694E10,6.697079E9,1.0805223E10,2.4770249E10,9.457644E10,8.304544E9,1.1829627E10,3.4432287E9,5.9114127E10,1.4873051E10,6.4416154E8,4.6318633E9,2.244698E9,1.1344491E11,5.952399E10,4.1290957E9,2.3360176E10,1.1061596E9,1.7344276E9,7.829682E9,5.6599685E9,1.7258906E9,2.0952908E10,1.3292582E10,2.9487661E10,8.368212E9,7.1251026E9,7.94177E8,1.1594278E10,1.8840781E9,1.4057472E9,2.917571E10,4.103137E10,2.3899607E9,7.9153316E9,9.635328E7,8.011745E8,1.605673E9,2.5532006E9,1.9764634E9,0E0,2.7693482E10,1.0463845E11,6.920759E10,3.084632E9,1.0998579E9,3.9760036E9,1.486907E10,1.7374511E10,0E0,0E0,0E0,0E0,0E0,0E0,0E0,0E0,0E0,0E0,0E0,0E0,0E0,0E0,0E0,0E0,0E0,0E0,0E0,0E0,0E0,0E0,0E0,0E0,0E0,0E0,0E0,0E0,0E0,0E0,0E0,0E0,0E0,0E0,0E0,0E0,0E0,0E0,0E0,0E0,0E0,0E0,0E0,0E0,0E0,0E0,0E0,0E0,0E0,0E0,0E0,0E0,0E0,0E0,0E0,0E0,0E0,0E0,0E0,0E0,0E0,0E0],"parents":[2147483647,0,0,1,1,2,2,3,3,4,4,5,5,6,6,7,7,8,8,9,9,10,10,11,11,12,12,13,13,14,14,15,15,16,16,17,17,18,18,19,19,20,20,21,21,22,22,23,23,24,24,25,25,26,26,27,27,28,28,29,29,30,30,31,31,32,32,33,33,34,34,35,35,36,36,37,37,38,38,39,39,40,40,41,41,42,42,43,43,44,44,45,45,46,46,47,47,48,48,49,49,50,50,51,51,52,52,53,53,55,55,56,56,57,57,58,58,59,59,60,60,61,61,62,62],"right_children":[2,4,6,8,10,12,14,16,18,20,22,24,26,28,30,32,34,36,38,40,42,44,46,48,50,52,54,56,58,60,62,64,66,68,70,72,74,76,78,80,82,84,86,88,90,92,94,96,98,100,102,104,106,108,-1,110,112,114,116,118,120,122,124,-1,-1,-1,-1,-1,-1,-1,-1,-1,-1,-1,-1,-1,-1,-1,-1,-1,-1,-1,-1,-1,-1,-1,-1,-1,-1,-1,-1,-1,-1,-1,-1,-1,-1,-1,-1,-1,-1,-1,-1,-1,-1,-1,-1,-1,-1,-1,-1,-1,-1,-1,-1,-1,-1,-1,-1,-1,-1,-1,-1,-1,-1],"split_conditions":[7.5E-1,1E0,1.0899495E-1,2.5E-1,1.4285715E-1,5.7365764E-2,1E0,1.5878843E-1,1E0,5E-1,9.3620926E-2,6.666667E-1,1E0,4.8979592E-1,8.163265E-2,1.0325838E-1,5.714286E-1,4.979348E-2,1.4285715E-1,1.4285715E-1,1.0509408E-1,4.199174E-2,5E-1,4.0156037E-2,2.857143E-1,3.0612245E-1,1E0,1.4285715E-1,1E0,2.0408163E-2,4.5502526E-1,3.469388E-1,1E0,5.582836E-1,7.1428573E-1,2.8682882E-2,2.857143E-1,7.5510204E-1,1.204681E-1,6.122449E-2,8.031207E-2,4.7728315E-2,2.4667278E-1,6.666667E-1,4.2857143E-1,7.1428573E-1,4.2857143E-1,5.714286E-1,1E0,7.1428573E-1,1E0,4.0816326E-2,9.3620926E-2,1.0509408E-1,4.058092E3,1E0,3.3333334E-1,1.4285715E-1,3.3333334E-1,1.4285715E-1,1E0,1E0,1E0,-1.3758718E3,-2.1545828E3,-8.883212E2,1.4918445E2,1.0142695E3,-5.43216E2,-4.6033167E2,6.308911E2,-3.0912634E3,-2.756231E3,-2.0007844E3,-2.3969236E3,3.7756775E2,-9.5820245E2,-2.5003572E3,-1.6328993E3,1.4333309E3,-4.5300793E2,-1.7122689E3,-5.9607556E2,-1.619957E3,-8.730481E2,1.01293536E3,5.705782E1,-2.6809343E3,-1.1297699E3,-1.9339377E3,-2.2847725E3,-1.7500194E3,-1.2245997E3,-6.427345E2,-1.2991968E3,-1.2445563E2,-9.9220483E2,5.992738E2,4.103745E3,5.026585E3,8.221474E3,2.731754E3,5.030931E3,4.64729E3,2.7523015E3,1.5240527E3,2.5285684E3,1.0818857E3,4.5569844E3,3.7159465E3,9.251554E3,3.0299104E3,6.328083E3,2.8528806E3,4.4488867E3,7.600088E2,8.429371E3,4.0443477E3,5.6987544E3,4.2147837E3,5.1473257E3,3.8991997E3,6.103575E3,2.8114812E3,3.7918435E3],"split_indices":[2,15,0,2,5,0,6,0,6,2,0,1,6,5,5,0,5,0,3,3,0,0,2,0,5,5,2,4,1,5,0,5,4,0,4,0,5,5,0,5,0,0,0,1,5,4,5,4,2,3,16,5,0,0,0,1,16,4,16,4,16,1,16,0,0,0,0,0,0,0,0,0,0,0,0,0,0,0,0,0,0,0,0,0,0,0,0,0,0,0,0,0,0,0,0,0,0,0,0,0,0,0,0,0,0,0,0,0,0,0,0,0,0,0,0,0,0,0,0,0,0,0,0,0,0],"split_type":[0,0,0,0,0,0,0,0,0,0,0,0,0,0,0,0,0,0,0,0,0,0,0,0,0,0,0,0,0,0,0,0,0,0,0,0,0,0,0,0,0,0,0,0,0,0,0,0,0,0,0,0,0,0,0,0,0,0,0,0,0,0,0,0,0,0,0,0,0,0,0,0,0,0,0,0,0,0,0,0,0,0,0,0,0,0,0,0,0,0,0,0,0,0,0,0,0,0,0,0,0,0,0,0,0,0,0,0,0,0,0,0,0,0,0,0,0,0,0,0,0,0,0,0,0],"sum_hessian":[3.09789E5,2.23789E5,8.6E4,1.19418E5,1.04371E5,7.801E3,7.8199E4,6.228E3,1.1319E5,1.4682E4,8.9689E4,4.857E3,2.944E3,4.6102E4,3.2097E4,1.691E3,4.537E3,6.8343E4,4.4847E4,7.864E3,6.818E3,6.979E3,8.271E4,4.771E3,8.6E1,1.569E3,1.375E3,2.0942E4,2.516E4,2.367E3,2.973E4,7.55E2,9.36E2,2.535E3,2.002E3,8.727E3,5.9616E4,3.199E3,4.1648E4,8.85E2,6.979E3,5.78E2,6.24E3,2.171E3,4.808E3,4.4379E4,3.8331E4,1.146E3,3.625E3,1.9E1,6.7E1,4.32E2,1.137E3,1.352E3,2.3E1,2.284E3,1.8658E4,2.4828E4,3.32E2,5.93E2,1.774E3,2.3169E4,6.561E3,2.57E2,4.98E2,7.57E2,1.79E2,2.201E3,3.34E2,1.384E3,6.18E2,1.844E3,6.883E3,1.6763E4,4.2853E4,2.244E3,9.55E2,3.894E3,3.7754E4,3.48E2,5.37E2,5.59E2,6.42E3,1.97E2,3.81E2,1.504E3,4.736E3,2.096E3,7.5E1,1.594E3,3.214E3,3.0549E4,1.383E4,1.2939E4,2.5392E4,5.41E2,6.05E2,3.567E3,5.8E1,1.3E1,6E0,2.8E1,3.9E1,4.7E1,3.85E2,8.16E2,3.21E2,1.338E3,1.4E1,2.2E3,8.4E1,9.13E2,1.7745E4,2.758E3,2.207E4,5E0,3.27E2,5.1E1,5.42E2,1.006E3,7.68E2,2.2888E4,2.81E2,3.41E3,3.151E3],"tree_param":{"num_deleted":"0","num_feature":"17","num_nodes":"125","size_leaf_vector":"1"}},{"base_weights":[7.4366814E-1,-3.7943457E3,9.876246E3,-5.2611475E3,-3.3460405E3,2.2711838E3,1.0667516E4,-6.0438413E3,-4.7246377E3,-2.011654E3,-3.8682063E3,1.0233053E3,4.136349E3,1.3787703E4,9.995399E3,-6.724965E3,-5.710119E3,-3.138838E3,-4.969804E3,-2.6574167E3,-5.954231E1,6.653706E1,-3.9853606E3,8.37661E2,1.1194238E4,5.221021E3,2.7408247E3,1.652758E4,1.0198533E4,9.173933E3,1.17003E4,-6.7874756E3,-2.110612E3,-5.921636E3,-4.5938877E3,-3.8764692E3,-1.0774606E3,-5.1528374E3,-3.485858E3,2.5215012E3,-2.866758E3,2.6764822E3,-5.2167755E2,4.71863E2,-4.31174E3,-4.78863E3,-3.3007354E3,-9.553826E2,1.7543575E3,9.8671E3,1.6906701E4,4.2398896E3,6.9700996E3,4.7230967E3,2.1821829E3,1.7487205E4,9.419126E3,1.2439828E4,9.642394E3,7.997208E3,1.1079311E4,1.3705918E4,1.05113E4,-1.7732164E3,-2.1078574E3,7.0347925E3,-7.8959607E2,-1.6728912E3,-1.9223794E3,-9.86871E2,-1.5877737E3,-1.0979631E3,-1.9272036E3,7.836402E2,-4.5465378E2,-8.327628E2,-1.5654774E3,-7.822813E2,-1.296709E3,3.84558E2,1.5171118E3,-7.939123E2,-1.8050441E3,1.5790052E3,2.3998447E2,4.6106274E2,-2.7515942E2,-1.526511E2,8.198572E2,-1.8819364E3,-6.519155E2,-1.6925945E3,-1.2112587E3,-1.0704705E3,-4.4726956E2,-9.9274457E2,-1.0172793E2,9.852838E2,1.1184999E1,2.7790894E3,7.997523E3,5.647573E3,2.077318E3,2.1952263E3,8.2850275E2,1.5284309E3,3.8658445E3,1.5515033E3,-3.8908306E3,1.35845E3,4.1161594E2,3.5078337E3,5.453672E3,3.3718835E2,5.0749023E3,3.687347E3,8.15694E3,2.5488047E3,3.2830476E3,3.1345256E3,2.1338562E3,4.2787617E3,2.8108972E3,4.6166396E3,3.7739893E3,1.940947E3,3.3233179E3],"categories":[],"categories_nodes":[],"categories_segments":[],"categories_sizes":[],"default_left":[0,0,0,0,0,0,0,0,0,0,0,0,0,0,0,0,0,0,0,0,0,0,0,0,0,0,0,0,0,0,0,0,0,0,0,0,0,0,0,0,0,0,0,0,0,0,0,0,0,0,0,0,0,0,0,0,0,0,0,0,0,0,0,0,0,0,0,0,0,0,0,0,0,0,0,0,0,0,0,0,0,0,0,0,0,0,0,0,0,0,0,0,0,0,0,0,0,0,0,0,0,0,0,0,0,0,0,0,0,0,0,0,0,0,0,0,0,0,0,0,0,0,0,0,0,0,0],"id":3,"left_children":[1,3,5,7,9,11,13,15,17,19,21,23,25,27,29,31,33,35,37,39,41,43,45,47,49,51,53,55,57,59,61,63,65,67,69,71,73,75,77,79,81,83,85,87,89,91,93,95,97,99,101,103,105,107,109,111,113,115,117,119,121,123,125,-1,-1,-1,-1,-1,-1,-1,-1,-1,-1,-1,-1,-1,-1,-1,-1,-1,-1,-1,-1,-1,-1,-1,-1,-1,-1,-1,-1,-1,-1,-1,-1,-1,-1,-1,-1,-1,-1,-1,-1,-1,-1,-1,-1,-1,-1,-1,-1,-1,-1,-1,-1,-1,-1,-1,-1,-1,-1,-1,-1,-1,-1,-1,-1],"loss_changes":[1.1610475E13,1.4714117E11,5.1750004E11,2.1969371E10,1.19422845E11,1.8862486E10,1.6322029E11,4.8033956E9,1.2069765E10,6.077468E10,5.679009E10,9.163381E9,4.9036493E9,1.3556882E11,8.965744E10,2.0045169E9,3.3497416E9,6.3288525E9,7.2940913E9,3.928313E10,1.515539E10,6.3250386E9,6.577547E10,7.845303E9,4.9274675E8,3.1057224E9,1.5654943E9,5.321982E10,7.331447E9,9.690022E10,4.954548E10,1.40365E9,1.3277164E9,1.9830538E9,2.0631224E9,1.6687923E9,1.7802E9,3.7117624E9,2.162602E9,4.4190833E9,2.4156865E10,8.4035185E9,8.3502157E9,7.234408E9,1.2531927E9,3.52585E10,3.126467E10,2.3415987E9,8.2959094E9,4.92757E8,1.5691878E8,5.316059E9,7.201274E9,2.543271E9,2.1072E9,2.741882E10,5.800484E10,2.2644E9,7.057539E9,5.790394E10,8.9733595E10,1.4495252E10,2.988481E10,0E0,0E0,0E0,0E0,0E0,0E0,0E0,0E0,0E0,0E0,0E0,0E0,0E0,0E0,0E0,0E0,0E0,0E0,0E0,0E0,0E0,0E0,0E0,0E0,0E0,0E0,0E0,0E0,0E0,0E0,0E0,0E0,0E0,0E0,0E0,0E0,0E0,0E0,0E0,0E0,0E0,0E0,0E0,0E0,0E0,0E0,0E0,0E0,0E0,0E0,0E0,0E0,0E0,0E0,0E0,0E0,0E0,0E0,0E0,0E0,0E0,0E0,0E0,0E0],"parents":[2147483647,0,0,1,1,2,2,3,3,4,4,5,5,6,6,7,7,8,8,9,9,10,10,11,11,12,12,13,13,14,14,15,15,16,16,17,17,18,18,19,19,20,20,21,21,22,22,23,23,24,24,25,25,26,26,27,27,28,28,29,29,30,30,31,31,32,32,33,33,34,34,35,35,36,36,37,37,38,38,39,39,40,40,41,41,42,42,43,43,44,44,45,45,46,46,47,47,48,48,49,49,50,50,51,51,52,52,53,53,54,54,55,55,56,56,57,57,58,58,59,59,60,60,61,61,62,62],"right_children":[2,4,6,8,10,12,14,16,18,20,22,24,26,28,30,32,34,36,38,40,42,44,46,48,50,52,54,56,58,60,62,64,66,68,70,72,74,76,78,80,82,84,86,88,90,92,94,96,98,100,102,104,106,108,110,112,114,116,118,120,122,124,126,-1,-1,-1,-1,-1,-1,-1,-1,-1,-1,-1,-1,-1,-1,-1,-1,-1,-1,-1,-1,-1,-1,-1,-1,-1,-1,-1,-1,-1,-1,-1,-1,-1,-1,-1,-1,-1,-1,-1,-1,-1,-1,-1,-1,-1,-1,-1,-1,-1,-1,-1,-1,-1,-1,-1,-1,-1,-1,-1,-1,-1,-1,-1,-1],"split_conditions":[7.5E-1,1.3767783E-1,1.12895824E-1,5.7365764E-2,2.857143E-1,5.7365764E-2,2.0408164E-1,4.2857143E-1,1.4285715E-1,5E-1,2.5E-1,6.666667E-1,1E0,1E0,7.1428573E-1,6.666667E-1,5E-1,1E0,5E-1,2.5E-1,4.0816326E-2,1E0,1E0,4.199174E-2,4.589261E-2,1E0,2.857143E-1,5.335016E-1,4.0816326E-2,7.1428573E-1,8.5714287E-1,2.244898E-1,2.5E-1,8.5714287E-1,3.469388E-1,1E0,1.4285715E-1,2.5E-1,5.714286E-1,7.1428573E-1,1E0,4.2857143E-1,2.2762735E-1,7.1428573E-1,1E0,1E0,1E0,3.2583755E-2,1E0,1E0,5.553006E-2,2.857143E-1,9.93575E-2,1.0325838E-1,2.857143E-1,1.4285715E-1,1E0,1E0,1E0,2.3336393E-1,8.5714287E-1,4.2857143E-1,1.4285715E-1,-1.7732164E3,-2.1078574E3,7.0347925E3,-7.8959607E2,-1.6728912E3,-1.9223794E3,-9.86871E2,-1.5877737E3,-1.0979631E3,-1.9272036E3,7.836402E2,-4.5465378E2,-8.327628E2,-1.5654774E3,-7.822813E2,-1.296709E3,3.84558E2,1.5171118E3,-7.939123E2,-1.8050441E3,1.5790052E3,2.3998447E2,4.6106274E2,-2.7515942E2,-1.526511E2,8.198572E2,-1.8819364E3,-6.519155E2,-1.6925945E3,-1.2112587E3,-1.0704705E3,-4.4726956E2,-9.9274457E2,-1.0172793E2,9.852838E2,1.1184999E1,2.7790894E3,7.997523E3,5.647573E3,2.077318E3,2.1952263E3,8.2850275E2,1.5284309E3,3.8658445E3,1.5515033E3,-3.8908306E3,1.35845E3,4.1161594E2,3.5078337E3,5.453672E3,3.3718835E2,5.0749023E3,3.687347E3,8.15694E3,2.5488047E3,3.2830476E3,3.1345256E3,2.1338562E3,4.2787617E3,2.8108972E3,4.6166396E3,3.7739893E3,1.940947E3,3.3233179E3],"split_indices":[2,0,0,0,5,0,5,4,5,2,2,1,6,6,3,1,2,15,2,2,5,1,15,0,0,16,3,0,5,4,3,5,2,4,5,7,3,2,5,3,7,4,0,3,16,6,1,0,6,2,0,4,0,0,4,4,16,1,16,0,4,4,4,0,0,0,0,0,0,0,0,0,0,0,0,0,0,0,0,0,0,0,0,0,0,0,0,0,0,0,0,0,0,0,0,0,0,0,0,0,0,0,0,0,0,0,0,0,0,0,0,0,0,0,0,0,0,0,0,0,0,0,0,0,0,0,0],"split_type":[0,0,0,0,0,0,0,0,0,0,0,0,0,0,0,0,0,0,0,0,0,0,0,0,0,0,0,0,0,0,0,0,0,0,0,0,0,0,0,0,0,0,0,0,0,0,0,0,0,0,0,0,0,0,0,0,0,0,0,0,0,0,0,0,0,0,0,0,0,0,0,0,0,0,0,0,0,0,0,0,0,0,0,0,0,0,0,0,0,0,0,0,0,0,0,0,0,0,0,0,0,0,0,0,0,0,0,0,0,0,0,0,0,0,0,0,0,0,0,0,0,0,0,0,0,0,0],"sum_hessian":[3.09789E5,2.23789E5,8.6E4,5.2384E4,1.71405E5,8.105E3,7.7895E4,2.13E4,3.1084E4,4.821E4,1.23195E5,4.857E3,3.248E3,1.3802E4,6.4093E4,6.998E3,1.4302E4,4.164E3,2.692E4,3.6226E4,1.1984E4,3.562E3,1.19633E5,4.771E3,8.6E1,1.826E3,1.422E3,7.825E3,5.977E3,4.3257E4,2.0836E4,6.904E3,9.4E1,1.202E4,2.282E3,3.066E3,1.098E3,2.3962E4,2.958E3,1.407E3,3.4819E4,1.731E3,1.0253E4,3.261E3,3.01E2,5.5044E4,6.4589E4,1.614E3,3.157E3,7.2E1,1.4E1,1.172E3,6.54E2,3.11E2,1.111E3,6.893E3,9.32E2,1.184E3,4.793E3,2.6745E4,1.6512E4,7.751E3,1.3085E4,1.483E3,5.421E3,1E0,9.3E1,7.036E3,4.984E3,7.98E2,1.484E3,2.828E3,2.38E2,1.16E2,9.82E2,6.43E2,2.3319E4,1.445E3,1.513E3,9.46E2,4.61E2,3.2544E4,2.275E3,7.27E2,1.004E3,1.652E3,8.601E3,2.275E3,9.86E2,1.56E2,1.45E2,2.5765E4,2.9279E4,5.6271E4,8.318E3,3.34E2,1.28E3,1.669E3,1.488E3,7.1E1,1E0,1.1E1,3E0,3.79E2,7.93E2,4.98E2,1.56E2,3.04E2,7E0,2.84E2,8.27E2,7.37E2,6.156E3,4.43E2,4.89E2,1.174E3,1E1,2.552E3,2.241E3,7.088E3,1.9657E4,5.767E3,1.0745E4,3.102E3,4.649E3,1.61E3,1.1475E4],"tree_param":{"num_deleted":"0","num_feature":"17","num_nodes":"127","size_leaf_vector":"1"}},{"base_weights":[7.413482E-1,-2.656113E3,6.9143525E3,-2.9761921E3,-1.4948151E3,2.0122761E3,7.5339717E3,-2.8980232E1,-3.0846702E3,-2.7539633E2,-2.0862227E3,1.1834619E3,4.143688E3,8.538307E3,6.112037E3,-1.765532E3,1.1887953E3,-1.7636113E3,-3.2938254E3,-3.9985159E3,-8.769931E1,-2.2170464E3,6.5701276E2,-2.878486E2,2.0208121E3,5.0706943E3,-6.33491E2,4.0419026E3,9.120503E3,7.4937246E3,5.6880254E3,-2.988024E3,-2.0745985E1,1.6506732E3,-3.0917576E3,-2.396384E3,-5.351726E2,-3.4322644E3,-1.554589E3,-4.618882E3,6.572973E2,2.3174346E3,-3.7086002E2,-3.843095E3,-2.0012809E3,-1.9767062E2,2.4824417E3,3.6625054E3,-5.785394E2,3.168628E3,9.8681287E2,9.487077E3,4.114488E3,-2.754442E3,4.8550933E3,7.78848E3,1.4995731E3,1.0627918E4,7.3275273E3,4.8692837E3,8.574243E3,4.174417E3,6.7352734E3,-6.592154E2,-1.5507377E3,-5.1174088E2,7.005992E2,1.742998E2,1.2435824E3,7.228772E2,-1.02244025E3,-9.662993E2,-3.0112375E2,5.0315723E2,-2.7487177E2,-1.1232063E3,-8.2197406E2,-3.3685486E2,-6.875897E2,-1.5012212E3,-5.1611365E2,1.4755149E3,-6.052856E2,1.7013068E3,5.000068E2,-2.9247684E2,2.2966678E2,-1.2847964E3,-5.3892223E1,-7.5756976E2,-3.8005478E2,-5.192361E2,7.0579926E2,8.614639E2,-1.0721713E3,1.5921239E3,-4.8357502E1,7.497295E0,-5.5907587E2,1.5350562E3,4.3538483E2,2.4534016E2,2.8674666E3,3.3290652E3,1.1826333E3,8.9980756E2,1.7883956E3,-2.6553735E2,-4.5052363E3,-1.1116862E3,2.9524424E3,-4.0217075E2,3.128281E3,-2.9051497E3,6.22716E2,4.096425E3,2.8842742E3,1.8584182E3,2.591182E3,2.6574387E3,7.8272107E2,1.8326935E3,3.0517515E3,1.7631329E3,8.004129E2,2.5523442E3,1.5318635E3],"categories":[],"categories_nodes":[],"categories_segments":[],"categories_sizes":[],"default_left":[0,0,0,0,0,0,0,0,0,0,0,0,0,0,0,0,0,0,0,0,0,0,0,0,0,0,0,0,0,0,0,0,0,0,0,0,0,0,0,0,0,0,0,0,0,0,0,0,0,0,0,0,0,0,0,0,0,0,0,0,0,0,0,0,0,0,0,0,0,0,0,0,0,0,0,0,0,0,0,0,0,0,0,0,0,0,0,0,0,0,0,0,0,0,0,0,0,0,0,0,0,0,0,0,0,0,0,0,0,0,0,0,0,0,0,0,0,0,0,0,0,0,0,0,0,0,0],"id":4,"left_children":[1,3,5,7,9,11,13,15,17,19,21,23,25,27,29,31,33,35,37,39,41,43,45,47,49,51,53,55,57,59,61,63,65,67,69,71,73,75,77,79,81,83,85,87,89,91,93,95,97,99,101,103,105,107,109,111,113,115,117,119,121,123,125,-1,-1,-1,-1,-1,-1,-1,-1,-1,-1,-1,-1,-1,-1,-1,-1,-1,-1,-1,-1,-1,-1,-1,-1,-1,-1,-1,-1,-1,-1,-1,-1,-1,-1,-1,-1,-1,-1,-1,-1,-1,-1,-1,-1,-1,-1,-1,-1,-1,-1,-1,-1,-1,-1,-1,-1,-1,-1,-1,-1,-1,-1,-1,-1],"loss_changes":[5.6903834E12,8.317986E10,2.6120579E11,5.6087806E10,3.4872476E10,1.7045787E10,1.0898296E11,1.3174753E10,4.674722E10,1.1036787E10,1.168769E10,8.564229E9,1.1968954E10,1.1709081E11,1.8475123E10,5.477448E9,7.2452183E9,1.797818E10,3.516714E10,2.1923727E9,1.0241649E10,1.0896916E10,2.3142136E9,2.898211E9,5.254576E9,9.517552E9,5.135421E9,4.8861266E10,1.0698647E11,2.0996719E10,3.831608E10,2.5925837E9,4.2083443E9,8.819356E9,6.2956954E8,1.752807E10,6.632186E9,2.9194977E10,3.4267423E9,7.383112E8,1.03574746E9,3.4473615E9,9.236468E9,5.860745E9,1.055667E10,3.957041E9,1.1249121E9,1.0887404E9,1.8226236E9,7.0153605E9,3.3704904E9,3.5446333E9,3.816827E9,7.276369E9,5.2869683E9,4.9982226E10,1.9723661E10,6.589042E10,2.679518E10,1.9504767E10,2.063935E10,2.5363923E10,4.123735E10,0E0,0E0,0E0,0E0,0E0,0E0,0E0,0E0,0E0,0E0,0E0,0E0,0E0,0E0,0E0,0E0,0E0,0E0,0E0,0E0,0E0,0E0,0E0,0E0,0E0,0E0,0E0,0E0,0E0,0E0,0E0,0E0,0E0,0E0,0E0,0E0,0E0,0E0,0E0,0E0,0E0,0E0,0E0,0E0,0E0,0E0,0E0,0E0,0E0,0E0,0E0,0E0,0E0,0E0,0E0,0E0,0E0,0E0,0E0,0E0,0E0,0E0,0E0,0E0],"parents":[2147483647,0,0,1,1,2,2,3,3,4,4,5,5,6,6,7,7,8,8,9,9,10,10,11,11,12,12,13,13,14,14,15,15,16,16,17,17,18,18,19,19,20,20,21,21,22,22,23,23,24,24,25,25,26,26,27,27,28,28,29,29,30,30,31,31,32,32,33,33,34,34,35,35,36,36,37,37,38,38,39,39,40,40,41,41,42,42,43,43,44,44,45,45,46,46,47,47,48,48,49,49,50,50,51,51,52,52,53,53,54,54,55,55,56,56,57,57,58,58,59,59,60,60,61,61,62,62],"right_children":[2,4,6,8,10,12,14,16,18,20,22,24,26,28,30,32,34,36,38,40,42,44,46,48,50,52,54,56,58,60,62,64,66,68,70,72,74,76,78,80,82,84,86,88,90,92,94,96,98,100,102,104,106,108,110,112,114,116,118,120,122,124,126,-1,-1,-1,-1,-1,-1,-1,-1,-1,-1,-1,-1,-1,-1,-1,-1,-1,-1,-1,-1,-1,-1,-1,-1,-1,-1,-1,-1,-1,-1,-1,-1,-1,-1,-1,-1,-1,-1,-1,-1,-1,-1,-1,-1,-1,-1,-1,-1,-1,-1,-1,-1,-1,-1,-1,-1,-1,-1,-1,-1,-1,-1,-1,-1],"split_conditions":[7.5E-1,5E-1,1.2620468E-1,2.5E-1,3.265306E-1,6.666667E-1,1E0,2.1982561E-1,1.4285715E-1,3.3333334E-1,6.406609E-1,4.979348E-2,8.5714287E-1,1.4285715E-1,2.857143E-1,1E0,1E0,1E0,1E0,1E0,1.4285715E-1,1.4285715E-1,7.1428573E-1,8.163265E-2,4.8979592E-1,2.0408164E-1,5.714286E-1,2.7925655E-1,5.714286E-1,1.4285715E-1,5.714286E-1,6.666667E-1,1.5488756E-1,7.1428573E-1,2.3519963E-1,1E0,2.0408163E-2,7.1428573E-1,7.1428573E-1,6.406609E-1,1.4285715E-1,6.122449E-2,7.1428573E-1,1E0,5.714286E-1,7.1428573E-1,1E0,1E0,1E0,1E0,1E0,1E0,1E0,1.22303806E-1,3.3333334E-1,1.6062415E-1,3.3333334E-1,2.3336393E-1,1E0,4.2857143E-1,5.714286E-1,4.2857143E-1,4.2857143E-1,-6.592154E2,-1.5507377E3,-5.1174088E2,7.005992E2,1.742998E2,1.2435824E3,7.228772E2,-1.02244025E3,-9.662993E2,-3.0112375E2,5.0315723E2,-2.7487177E2,-1.1232063E3,-8.2197406E2,-3.3685486E2,-6.875897E2,-1.5012212E3,-5.1611365E2,1.4755149E3,-6.052856E2,1.7013068E3,5.000068E2,-2.9247684E2,2.2966678E2,-1.2847964E3,-5.3892223E1,-7.5756976E2,-3.8005478E2,-5.192361E2,7.0579926E2,8.614639E2,-1.0721713E3,1.5921239E3,-4.8357502E1,7.497295E0,-5.5907587E2,1.5350562E3,4.3538483E2,2.4534016E2,2.8674666E3,3.3290652E3,1.1826333E3,8.9980756E2,1.7883956E3,-2.6553735E2,-4.5052363E3,-1.1116862E3,2.9524424E3,-4.0217075E2,3.128281E3,-2.9051497E3,6.22716E2,4.096425E3,2.8842742E3,1.8584182E3,2.591182E3,2.6574387E3,7.8272107E2,1.8326935E3,3.0517515E3,1.7631329E3,8.004129E2,2.5523442E3,1.5318635E3],"split_indices":[2,2,0,2,5,1,6,0,5,16,0,0,4,3,3,16,1,15,1,4,3,4,4,5,5,5,3,0,5,3,3,16,0,3,0,6,5,4,5,0,3,5,3,1,3,3,3,6,6,6,2,6,16,0,16,0,16,0,16,4,4,3,4,0,0,0,0,0,0,0,0,0,0,0,0,0,0,0,0,0,0,0,0,0,0,0,0,0,0,0,0,0,0,0,0,0,0,0,0,0,0,0,0,0,0,0,0,0,0,0,0,0,0,0,0,0,0,0,0,0,0,0,0,0,0,0,0],"split_type":[0,0,0,0,0,0,0,0,0,0,0,0,0,0,0,0,0,0,0,0,0,0,0,0,0,0,0,0,0,0,0,0,0,0,0,0,0,0,0,0,0,0,0,0,0,0,0,0,0,0,0,0,0,0,0,0,0,0,0,0,0,0,0,0,0,0,0,0,0,0,0,0,0,0,0,0,0,0,0,0,0,0,0,0,0,0,0,0,0,0,0,0,0,0,0,0,0,0,0,0,0,0,0,0,0,0,0,0,0,0,0,0,0,0,0,0,0,0,0,0,0,0,0,0,0,0,0],"sum_hessian":[3.09789E5,2.23789E5,8.6E4,1.75434E5,4.8355E4,9.651E3,7.6349E4,6.228E3,1.69206E5,1.5793E4,3.2562E4,6.95E3,2.701E3,4.4742E4,3.1607E4,2.567E3,3.661E3,2.3129E4,1.46077E5,7.57E2,1.5036E4,3.108E4,1.482E3,2.521E3,4.429E3,2.262E3,4.39E2,5.13E3,3.9612E4,7.418E3,2.4189E4,1.509E3,1.058E3,3.305E3,3.56E2,1.5265E4,7.864E3,1.35306E5,1.0771E4,6.68E2,8.9E1,1.583E3,1.3453E4,3.639E3,2.7441E4,1.01E3,4.72E2,1.72E2,2.349E3,2.098E3,2.331E3,4.01E2,1.861E3,3.17E2,1.22E2,2.073E3,3.057E3,2.1517E4,1.8095E4,2.165E3,5.253E3,9.894E3,1.4295E4,1.109E3,4E2,6.17E2,4.41E2,2.314E3,9.91E2,1.9E1,3.37E2,9.587E3,5.678E3,1.155E3,6.709E3,9.3293E4,4.2013E4,6.795E3,3.976E3,5.89E2,7.9E1,3.4E1,5.5E1,2.56E2,1.327E3,8.784E3,4.669E3,3.249E3,3.9E2,1.6014E4,1.1427E4,6.31E2,3.79E2,4.44E2,2.8E1,1.2E2,5.2E1,1.599E3,7.5E2,9.82E2,1.116E3,2.287E3,4.4E1,3.1E2,9.1E1,1.162E3,6.99E2,2.76E2,4.1E1,4.5E1,7.7E1,4.65E2,1.608E3,1.49E2,2.908E3,5.395E3,1.6122E4,9.706E3,8.389E3,7.82E2,1.383E3,2.068E3,3.185E3,4.643E3,5.251E3,6.844E3,7.451E3],"tree_param":{"num_deleted":"0","num_feature":"17","num_nodes":"127","size_leaf_vector":"1"}},{"base_weights":[6.1812395E-1,-1.8593081E3,4.840479E3,-2.8847876E3,-1.6087026E3,1.4096652E3,5.274132E3,-3.3979736E3,-2.516156E3,-1.9669884E3,-8.297887E2,2.4601372E3,4.8897757E2,2.346314E3,5.5816133E3,-3.43616E3,2.5432057E2,-2.7721028E3,-1.9166904E3,-2.460354E3,-1.0931016E3,2.078626E2,-1.5832981E3,3.7401448E3,6.072014E2,1.0640963E3,-1.433836E3,1.8313427E3,1.392141E4,9.332167E3,5.320179E3,-4.0489443E3,-3.2623376E3,2.7199702E3,-1.3632975E3,-2.376857E3,-3.048583E3,-1.3770063E3,-2.3281885E3,-1.9792029E3,-3.0871804E3,-9.31349E2,-4.3926543E3,4.0493704E2,-2.7717134E3,-1.4534794E3,-4.569775E3,3.0269612E3,6.8775107E3,4.2915475E2,2.715937E3,1.7853135E3,-5.9679205E2,-1.5682859E3,9.157803E3,5.1125757E3,1.3664151E2,3.318511E3,1.6255181E4,1.1861751E4,6.563044E3,1.5950526E3,5.532533E3,-1.3041868E3,-1.117795E3,-6.366417E2,-1.0116666E3,6.0563345E3,6.653688E2,-6.5263715E2,1.5057918E2,-9.316202E2,-5.5670984E2,-1.0299509E3,-8.559814E2,-5.0088773E2,5.8634003E1,-8.018001E2,-3.9709912E2,-1.693996E2,-6.783406E2,-1.057519E3,-8.494909E2,1.9120374E2,-3.540531E2,-1.00564716E3,-1.5491637E3,2.6473926E2,-6.726579E1,-9.3015186E2,-4.1136917E2,-5.057639E2,-2.986402E1,-1.4475549E3,-7.8386444E2,6.531419E2,1.324987E3,2.901981E3,1.5231904E3,-1.720713E2,4.4618686E2,7.090586E2,2.9434973E2,-3.385262E2,5.250992E2,-5.110328E2,1.774283E3,6.355028E3,2.0357185E3,2.6290215E3,8.8501447E2,-1.1478885E3,4.8121442E2,1.8539017E3,8.5822015E2,5.463797E3,1.8815594E3,2.7507297E3,4.6877847E3,1.9400759E3,5.278361E3,2.5262444E3,7.639524E1,1.9078419E3,1.3089579E3],"categories":[],"categories_nodes":[],"categories_segments":[],"categories_sizes":[],"default_left":[0,0,0,0,0,0,0,0,0,0,0,0,0,0,0,0,0,0,0,0,0,0,0,0,0,0,0,0,0,0,0,0,0,0,0,0,0,0,0,0,0,0,0,0,0,0,0,0,0,0,0,0,0,0,0,0,0,0,0,0,0,0,0,0,0,0,0,0,0,0,0,0,0,0,0,0,0,0,0,0,0,0,0,0,0,0,0,0,0,0,0,0,0,0,0,0,0,0,0,0,0,0,0,0,0,0,0,0,0,0,0,0,0,0,0,0,0,0,0,0,0,0,0,0,0],"id":5,"left_children":[1,3,5,7,9,11,13,15,17,19,21,23,25,27,29,31,33,35,37,39,41,43,45,47,49,51,53,55,57,59,61,63,65,67,69,71,73,75,77,79,81,83,85,87,89,91,93,95,97,99,-1,101,103,105,107,109,111,113,115,117,119,121,123,-1,-1,-1,-1,-1,-1,-1,-1,-1,-1,-1,-1,-1,-1,-1,-1,-1,-1,-1,-1,-1,-1,-1,-1,-1,-1,-1,-1,-1,-1,-1,-1,-1,-1,-1,-1,-1,-1,-1,-1,-1,-1,-1,-1,-1,-1,-1,-1,-1,-1,-1,-1,-1,-1,-1,-1,-1,-1,-1,-1,-1,-1],"loss_changes":[2.788672E12,5.7507316E10,1.2794331E11,8.3053773E9,5.018783E10,9.333791E9,6.872092E10,2.5627525E9,3.9194788E9,5.310628E10,4.4303995E10,1.0689677E10,5.691103E9,4.32383E10,6.769764E10,1.9231375E9,7.655077E8,1.9514327E9,1.6972534E9,2.3739007E10,2.37199E10,1.3998755E10,1.2720022E10,5.944406E9,2.7675592E9,4.745794E9,1.7018542E9,3.864623E10,7.5921777E9,3.1450399E10,5.1087147E10,3.704668E8,1.7678336E9,6.217564E8,1.7681597E8,2.7970806E9,7.821312E8,1.5256581E9,1.4992998E9,1.7763058E10,3.815637E9,1.6541213E10,1.6493937E9,6.718018E9,6.767821E8,9.898856E9,6.7062784E8,2.5578004E9,2.432131E9,1.9170533E9,0E0,1.2819292E9,1.4993321E9,1.1943299E9,2.8414016E8,1.8661659E10,2.666319E10,5.6978816E7,4.829917E9,2.3685693E10,2.16712E9,3.1883037E10,5.906288E10,0E0,0E0,0E0,0E0,0E0,0E0,0E0,0E0,0E0,0E0,0E0,0E0,0E0,0E0,0E0,0E0,0E0,0E0,0E0,0E0,0E0,0E0,0E0,0E0,0E0,0E0,0E0,0E0,0E0,0E0,0E0,0E0,0E0,0E0,0E0,0E0,0E0,0E0,0E0,0E0,0E0,0E0,0E0,0E0,0E0,0E0,0E0,0E0,0E0,0E0,0E0,0E0,0E0,0E0,0E0,0E0,0E0,0E0,0E0,0E0,0E0,0E0],"parents":[2147483647,0,0,1,1,2,2,3,3,4,4,5,5,6,6,7,7,8,8,9,9,10,10,11,11,12,12,13,13,14,14,15,15,16,16,17,17,18,18,19,19,20,20,21,21,22,22,23,23,24,24,25,25,26,26,27,27,28,28,29,29,30,30,31,31,32,32,33,33,34,34,35,35,36,36,37,37,38,38,39,39,40,40,41,41,42,42,43,43,44,44,45,45,46,46,47,47,48,48,49,49,51,51,52,52,53,53,54,54,55,55,56,56,57,57,58,58,59,59,60,60,61,61,62,62],"right_children":[2,4,6,8,10,12,14,16,18,20,22,24,26,28,30,32,34,36,38,40,42,44,46,48,50,52,54,56,58,60,62,64,66,68,70,72,74,76,78,80,82,84,86,88,90,92,94,96,98,100,-1,102,104,106,108,110,112,114,116,118,120,122,124,-1,-1,-1,-1,-1,-1,-1,-1,-1,-1,-1,-1,-1,-1,-1,-1,-1,-1,-1,-1,-1,-1,-1,-1,-1,-1,-1,-1,-1,-1,-1,-1,-1,-1,-1,-1,-1,-1,-1,-1,-1,-1,-1,-1,-1,-1,-1,-1,-1,-1,-1,-1,-1,-1,-1,-1,-1,-1,-1,-1,-1,-1],"split_conditions":[7.5E-1,1.2620468E-1,1.2620468E-1,5.3464893E-2,7.1428573E-1,4.8979592E-1,1.4285715E-1,6.666667E-1,7.1428573E-1,7.1428573E-1,8.5714287E-1,1E0,1E0,1E0,8.163265E-2,3.2583755E-2,3.469388E-1,4.2857143E-1,8.5714287E-1,5.714286E-1,1E0,1E0,1E0,1.12895824E-1,1E0,8.5714287E-1,1E0,4.2857143E-1,1.73933E-1,1E0,3.3333334E-1,1E0,1.4285715E-1,2.5E-1,1E0,8.031207E-2,2.857143E-1,1.1656723E-1,1E0,1.4285715E-1,2.857143E-1,1.4285715E-1,1E0,5.714286E-1,1E0,1E0,3.23084E-1,1E0,2.0408164E-1,5.7365764E-2,2.715937E3,1E0,1.0509408E-1,1.2436897E-1,4.0156037E-2,2.944011E-1,5.714286E-1,1.4285715E-1,2.6571822E-1,1E0,1E0,2.857143E-1,1E0,-1.3041868E3,-1.117795E3,-6.366417E2,-1.0116666E3,6.0563345E3,6.653688E2,-6.5263715E2,1.5057918E2,-9.316202E2,-5.5670984E2,-1.0299509E3,-8.559814E2,-5.0088773E2,5.8634003E1,-8.018001E2,-3.9709912E2,-1.693996E2,-6.783406E2,-1.057519E3,-8.494909E2,1.9120374E2,-3.540531E2,-1.00564716E3,-1.5491637E3,2.6473926E2,-6.726579E1,-9.3015186E2,-4.1136917E2,-5.057639E2,-2.986402E1,-1.4475549E3,-7.8386444E2,6.531419E2,1.324987E3,2.901981E3,1.5231904E3,-1.720713E2,4.4618686E2,7.090586E2,2.9434973E2,-3.385262E2,5.250992E2,-5.110328E2,1.774283E3,6.355028E3,2.0357185E3,2.6290215E3,8.8501447E2,-1.1478885E3,4.8121442E2,1.8539017E3,8.5822015E2,5.463797E3,1.8815594E3,2.7507297E3,4.6877847E3,1.9400759E3,5.278361E3,2.5262444E3,7.639524E1,1.9078419E3,1.3089579E3],"split_indices":[2,0,0,0,3,5,4,1,3,4,3,6,4,1,5,0,5,5,3,5,7,7,7,0,2,3,2,3,0,6,16,11,3,2,6,0,3,0,15,3,4,3,4,5,1,1,0,16,5,0,0,6,0,0,0,0,3,5,0,16,1,4,6,0,0,0,0,0,0,0,0,0,0,0,0,0,0,0,0,0,0,0,0,0,0,0,0,0,0,0,0,0,0,0,0,0,0,0,0,0,0,0,0,0,0,0,0,0,0,0,0,0,0,0,0,0,0,0,0,0,0,0,0,0,0],"split_type":[0,0,0,0,0,0,0,0,0,0,0,0,0,0,0,0,0,0,0,0,0,0,0,0,0,0,0,0,0,0,0,0,0,0,0,0,0,0,0,0,0,0,0,0,0,0,0,0,0,0,0,0,0,0,0,0,0,0,0,0,0,0,0,0,0,0,0,0,0,0,0,0,0,0,0,0,0,0,0,0,0,0,0,0,0,0,0,0,0,0,0,0,0,0,0,0,0,0,0,0,0,0,0,0,0,0,0,0,0,0,0,0,0,0,0,0,0,0,0,0,0,0,0,0,0],"sum_hessian":[3.09789E5,2.23789E5,8.6E4,4.3947E4,1.79842E5,9.651E3,7.6349E4,1.8368E4,2.5579E4,1.2318E5,5.6662E4,4.507E3,5.144E3,7.257E3,6.9092E4,1.8178E4,1.9E2,1.7923E4,7.656E3,7.873E4,4.445E4,2.3837E4,3.2825E4,2.665E3,1.842E3,3.96E3,1.184E3,6.949E3,3.08E2,4.5E3,6.4592E4,4.012E3,1.4166E4,7.5E1,1.15E2,7.381E3,1.0542E4,3.314E3,4.342E3,4.4543E4,3.4187E4,4.2374E4,2.076E3,2.2359E4,1.478E3,3.1459E4,1.366E3,2.173E3,4.92E2,1.805E3,3.7E1,2.761E3,1.199E3,1.17E3,1.4E1,2.366E3,4.583E3,5.6E1,2.52E2,2.35E3,2.15E3,3.484E3,6.1108E4,2.079E3,1.933E3,1.247E3,1.2919E4,1E0,7.4E1,8E1,3.5E1,3.076E3,4.305E3,3.545E3,6.997E3,2.794E3,5.2E2,3.232E3,1.11E3,7.403E3,3.714E4,1.2594E4,2.1593E4,5.801E3,3.6573E4,8.86E2,1.19E3,1.2711E4,9.648E3,1.196E3,2.82E2,2.685E4,4.609E3,1.207E3,1.59E2,1.35E3,8.23E2,1.91E2,3.01E2,9.27E2,8.78E2,1.605E3,1.156E3,9.78E2,2.21E2,1.15E3,2E1,1E0,1.3E1,8.79E2,1.487E3,1.238E3,3.345E3,6E0,5E1,2.1E2,4.2E1,1.372E3,9.78E2,2.133E3,1.7E1,5.71E2,2.913E3,3.5792E4,2.5316E4],"tree_param":{"num_deleted":"0","num_feature":"17","num_nodes":"125","size_leaf_vector":"1"}},{"base_weights":[5.660246E-1,-1.3015704E3,3.3889583E3,-1.6964753E3,-8.497209E2,9.8886224E2,3.6923286E3,5.17337E2,-1.8182883E3,6.040055E2,-1.0502386E3,2.7826406E3,6.4350146E2,4.4706396E3,2.7568667E3,-3.2733123E3,8.187389E2,-2.2299023E3,-1.190988E3,-9.514682E1,1.4315654E3,-7.6109503E2,-1.6351239E3,4.0599175E3,8.796029E2,1.0613915E3,-7.628033E2,4.783131E3,1.199209E3,3.8911929E3,2.189462E3,-6.9959395E3,-9.119612E2,1.3499557E2,2.3430247E3,-2.723442E3,-1.9443303E3,2.2385557E3,-1.4544602E3,2.5680988E2,-1.8227144E3,2.8301008E3,7.6804425E2,-8.975519E2,4.498215E2,-1.9032712E3,-9.999491E2,3.2720652E3,6.7202075E3,2.602171E3,4.1940417E2,1.5630332E3,-2.0065407E2,4.5714563E2,-1.309804E3,4.1276255E3,6.1391875E3,-1.9456384E3,4.420434E3,3.7003777E3,1.0874033E4,-7.3841565E2,2.530103E3,-2.270434E3,1.3767354E3,2.0543525E3,-4.7846933E2,6.6667145E2,-1.0655196E2,-2.3210964E1,1.0266246E3,-7.687526E2,-1.0333789E3,-7.693389E2,-4.768498E2,7.997298E2,-7.393025E2,-5.4328107E2,-2.4310504E2,-9.004815E2,1.549859E2,4.3839516E1,-6.573803E2,5.232214E2,1.2481731E3,5.2795568E0,4.3656387E2,-3.4931155E2,-7.878927E1,5.490289E2,-7.807763E1,-6.674817E2,-4.051705E2,2.6666615E1,-4.8115543E2,1.5684496E3,7.224877E2,1.6195021E3,4.46265E3,3.3148972E2,1.2527058E3,7.63662E1,1.8230336E3,6.260733E2,2.3228548E2,-2.2672762E2,7.501254E2,-8.899298E2,3.2456134E2,-2.9852786E2,-4.3200264E3,9.495651E2,1.7012319E3,2.3309573E3,1.4317007E3,-1.4856162E3,2.4281972E2,7.996225E2,2.374303E3,1.3245911E3,7.471896E2,2.9689175E3,8.410909E3,3.3989243E2,-5.1992664E2,1.3667331E1,8.5165936E2],"categories":[],"categories_nodes":[],"categories_segments":[],"categories_sizes":[],"default_left":[0,0,0,0,0,0,0,0,0,0,0,0,0,0,0,0,0,0,0,0,0,0,0,0,0,0,0,0,0,0,0,0,0,0,0,0,0,0,0,0,0,0,0,0,0,0,0,0,0,0,0,0,0,0,0,0,0,0,0,0,0,0,0,0,0,0,0,0,0,0,0,0,0,0,0,0,0,0,0,0,0,0,0,0,0,0,0,0,0,0,0,0,0,0,0,0,0,0,0,0,0,0,0,0,0,0,0,0,0,0,0,0,0,0,0,0,0,0,0,0,0,0,0,0,0,0,0],"id":6,"left_children":[1,3,5,7,9,11,13,15,17,19,21,23,25,27,29,31,33,35,37,39,41,43,45,47,49,51,53,55,57,59,61,63,65,67,69,71,73,75,77,79,81,83,85,87,89,91,93,95,97,99,101,103,105,107,109,111,113,115,117,119,121,123,125,-1,-1,-1,-1,-1,-1,-1,-1,-1,-1,-1,-1,-1,-1,-1,-1,-1,-1,-1,-1,-1,-1,-1,-1,-1,-1,-1,-1,-1,-1,-1,-1,-1,-1,-1,-1,-1,-1,-1,-1,-1,-1,-1,-1,-1,-1,-1,-1,-1,-1,-1,-1,-1,-1,-1,-1,-1,-1,-1,-1,-1,-1,-1,-1],"loss_changes":[1.366844E12,3.9931118E10,6.2615323E10,3.2204784E10,3.0424867E10,5.9776307E9,5.5576494E10,7.119369E9,2.9223879E10,7.3204623E9,1.5510225E10,3.783468E9,4.758085E9,4.259735E10,2.2310355E10,4.0284268E9,6.014337E9,9.627173E9,4.0527413E10,4.1709384E9,5.374414E9,1.0142708E10,5.1659653E9,1.9314043E9,4.9594627E8,3.9514563E9,1.238464E9,3.3788527E10,3.68321E10,1.5363998E10,2.3057736E10,1.214635E9,1.5053673E9,4.077847E9,4.6674504E9,2.8981821E9,9.523102E9,6.4357724E9,9.561571E9,4.8261417E9,8.427699E8,2.6861056E9,2.0271237E9,9.345004E9,6.093794E9,3.7898895E9,5.9240253E9,1.2056294E9,2.205103E9,3.0636154E8,4.610322E8,1.8437693E9,2.6647844E9,1.2330175E9,5.2629514E9,3.807137E10,2.7587707E10,1.5244335E10,1.09918E10,9.7232E9,4.8735724E9,4.487989E9,1.5885631E10,0E0,0E0,0E0,0E0,0E0,0E0,0E0,0E0,0E0,0E0,0E0,0E0,0E0,0E0,0E0,0E0,0E0,0E0,0E0,0E0,0E0,0E0,0E0,0E0,0E0,0E0,0E0,0E0,0E0,0E0,0E0,0E0,0E0,0E0,0E0,0E0,0E0,0E0,0E0,0E0,0E0,0E0,0E0,0E0,0E0,0E0,0E0,0E0,0E0,0E0,0E0,0E0,0E0,0E0,0E0,0E0,0E0,0E0,0E0,0E0,0E0,0E0,0E0,0E0],"parents":[2147483647,0,0,1,1,2,2,3,3,4,4,5,5,6,6,7,7,8,8,9,9,10,10,11,11,12,12,13,13,14,14,15,15,16,16,17,17,18,18,19,19,20,20,21,21,22,22,23,23,24,24,25,25,26,26,27,27,28,28,29,29,30,30,31,31,32,32,33,33,34,34,35,35,36,36,37,37,38,38,39,39,40,40,41,41,42,42,43,43,44,44,45,45,46,46,47,47,48,48,49,49,50,50,51,51,52,52,53,53,54,54,55,55,56,56,57,57,58,58,59,59,60,60,61,61,62,62],"right_children":[2,4,6,8,10,12,14,16,18,20,22,24,26,28,30,32,34,36,38,40,42,44,46,48,50,52,54,56,58,60,62,64,66,68,70,72,74,76,78,80,82,84,86,88,90,92,94,96,98,100,102,104,106,108,110,112,114,116,118,120,122,124,126,-1,-1,-1,-1,-1,-1,-1,-1,-1,-1,-1,-1,-1,-1,-1,-1,-1,-1,-1,-1,-1,-1,-1,-1,-1,-1,-1,-1,-1,-1,-1,-1,-1,-1,-1,-1,-1,-1,-1,-1,-1,-1,-1,-1,-1,-1,-1,-1,-1,-1,-1,-1,-1,-1,-1,-1,-1,-1,-1,-1,-1,-1,-1,-1],"split_conditions":[7.5E-1,1E0,1.2620468E-1,2.5E-1,1.2244898E-1,1.8367347E-1,5.714286E-1,3.3333334E-1,1E0,1E0,7.1428573E-1,1E0,1E0,5.582836E-1,2.5998163E-1,4.2857143E-1,7.1428573E-1,4.2857143E-1,1.4285715E-1,5.335016E-1,4.0816326E-2,1E0,7.1428573E-1,1.0509408E-1,4.0816326E-2,1E0,6.666667E-1,7.1428573E-1,1E0,1E0,1.4285715E-1,4.3988067E-1,1.0204082E-1,2.0408164E-1,1.73933E-1,8.5714287E-1,1E0,1E0,7.1428573E-1,3.3333334E-1,2.0408163E-2,5E-1,8.163265E-2,7.1428573E-1,2.8292796E-1,7.1428573E-1,8.5714287E-1,6.122449E-2,1E0,6.1266635E-2,1E0,6.938776E-1,1.0509408E-1,4.0156037E-2,1.22303806E-1,7.1428573E-1,4.2857143E-1,1E0,7.1428573E-1,8.5714287E-1,2.5057366E-1,4.2857143E-1,1.4285715E-1,-2.270434E3,1.3767354E3,2.0543525E3,-4.7846933E2,6.6667145E2,-1.0655196E2,-2.3210964E1,1.0266246E3,-7.687526E2,-1.0333789E3,-7.693389E2,-4.768498E2,7.997298E2,-7.393025E2,-5.4328107E2,-2.4310504E2,-9.004815E2,1.549859E2,4.3839516E1,-6.573803E2,5.232214E2,1.2481731E3,5.2795568E0,4.3656387E2,-3.4931155E2,-7.878927E1,5.490289E2,-7.807763E1,-6.674817E2,-4.051705E2,2.6666615E1,-4.8115543E2,1.5684496E3,7.224877E2,1.6195021E3,4.46265E3,3.3148972E2,1.2527058E3,7.63662E1,1.8230336E3,6.260733E2,2.3228548E2,-2.2672762E2,7.501254E2,-8.899298E2,3.2456134E2,-2.9852786E2,-4.3200264E3,9.495651E2,1.7012319E3,2.3309573E3,1.4317007E3,-1.4856162E3,2.4281972E2,7.996225E2,2.374303E3,1.3245911E3,7.471896E2,2.9689175E3,8.410909E3,3.3989243E2,-5.1992664E2,1.3667331E1,8.5165936E2],"split_indices":[2,15,0,2,5,5,5,16,6,16,5,6,4,0,0,3,4,3,3,0,5,1,3,0,5,3,16,4,16,1,3,0,5,5,0,4,11,1,3,16,5,2,5,4,0,4,3,5,3,0,2,5,0,0,0,3,3,6,4,5,0,4,4,0,0,0,0,0,0,0,0,0,0,0,0,0,0,0,0,0,0,0,0,0,0,0,0,0,0,0,0,0,0,0,0,0,0,0,0,0,0,0,0,0,0,0,0,0,0,0,0,0,0,0,0,0,0,0,0,0,0,0,0,0,0,0,0],"split_type":[0,0,0,0,0,0,0,0,0,0,0,0,0,0,0,0,0,0,0,0,0,0,0,0,0,0,0,0,0,0,0,0,0,0,0,0,0,0,0,0,0,0,0,0,0,0,0,0,0,0,0,0,0,0,0,0,0,0,0,0,0,0,0,0,0,0,0,0,0,0,0,0,0,0,0,0,0,0,0,0,0,0,0,0,0,0,0,0,0,0,0,0,0,0,0,0,0,0,0,0,0,0,0,0,0,0,0,0,0,0,0,0,0,0,0,0,0,0,0,0,0,0,0,0,0,0,0],"sum_hessian":[3.09789E5,2.23789E5,8.6E4,1.19418E5,1.04371E5,9.651E3,7.6349E4,6.228E3,1.1319E5,1.2651E4,9.172E4,1.557E3,8.094E3,4.1673E4,3.4676E4,4.58E2,5.77E3,6.8343E4,4.4847E4,6.858E3,5.793E3,6.1379E4,3.0341E4,9.31E2,6.26E2,6.24E3,1.854E3,3.8039E4,3.634E3,1.156E4,2.3116E4,1.77E2,2.81E2,3.984E3,1.786E3,2.5047E4,4.3296E4,3.199E3,4.1648E4,5.698E3,1.16E3,1.863E3,3.93E3,5.5163E4,6.216E3,2.1333E4,9.008E3,7.2E2,2.11E2,1.31E2,4.95E2,4.465E3,1.775E3,5.74E2,1.28E3,2.5646E4,1.2393E4,1.839E3,1.795E3,1.1254E4,3.06E2,2.409E3,2.0707E4,1.69E2,8E0,2.2E1,2.59E2,7.57E2,3.227E3,5.51E2,1.235E3,2.0481E4,4.566E3,1.5755E4,2.7541E4,2.933E3,2.66E2,2.6809E4,1.4839E4,4.2E2,5.278E3,1.83E2,9.77E2,1.027E3,8.36E2,1.879E3,2.051E3,3.884E4,1.6323E4,2.111E3,4.105E3,1.3483E4,7.85E3,3.214E3,5.794E3,2.19E2,5.01E2,1.83E2,2.8E1,6.8E1,6.3E1,4.82E2,1.3E1,2.682E3,1.783E3,1.473E3,3.02E2,8.8E1,4.86E2,1.251E3,2.9E1,1.5797E4,9.849E3,5.649E3,6.744E3,8.79E2,9.6E2,1.196E3,5.99E2,7.072E3,4.182E3,2.91E2,1.5E1,8.36E2,1.573E3,2.289E3,1.8418E4],"tree_param":{"num_deleted":"0","num_feature":"17","num_nodes":"127","size_leaf_vector":"1"}},{"base_weights":[4.877858E-1,-9.111089E2,2.3726255E3,-4.976811E2,-1.2131805E3,1.7258164E3,3.1433264E3,-8.772595E2,1.4463418E1,-1.3747504E3,-6.160513E2,2.1132622E3,-2.599212E3,2.526808E3,4.287893E3,5.5887134E2,-1.0418756E3,-8.302134E2,3.4837766E2,-1.5664696E3,-9.59778E2,-1.8638479E3,-5.0533527E2,2.9327883E3,1.2404032E3,-1.6309934E3,-7.7918696E3,1.6642661E3,3.8533728E3,6.1518584E3,3.1020103E3,1.1955487E3,-1.3129142E3,-1.4800853E3,-5.9292645E2,-1.4084768E3,-4.3236307E2,8.888006E2,-4.0113733E2,-1.601333E3,6.788649E2,-2.0083731E2,-1.4941301E3,-2.5815886E3,-1.5428302E3,8.1687546E1,-7.504453E2,2.3364324E3,6.051917E3,-1.3105632E3,2.0177855E3,-7.182579E2,-9.122719E3,-1.362615E4,-4.0652542E3,2.5410815E3,-9.377852E1,5.9063604E3,2.5094255E3,9.634026E3,5.7548745E3,-1.421766E2,3.6230728E3,5.6875464E2,-1.15837715E2,4.8928323E2,-5.310293E2,-4.7890253E2,4.982224E1,-5.5141483E1,-3.207912E2,1.3368634E2,-4.5650397E2,-3.2058002E2,-6.6573685E1,1.5011237E2,7.0265326E2,-4.3639703E2,-4.0705724E0,-6.2190784E2,-4.3844058E2,-4.6630002E2,3.6101538E2,6.311505E2,-8.347425E1,-5.131354E2,-1.5262747E2,-4.2223276E2,-8.5830896E2,-4.1065494E2,-6.464645E2,-1.7693573E2,1.4641612E2,-2.6358817E2,3.0658224E2,5.199567E1,8.88155E2,2.3862478E3,8.2515906E2,-1.541856E2,-7.506433E2,8.1373035E2,-9.3853375E2,-8.5763916E2,6.450691E2,-6.530249E2,-3.3773425E3,-7.563228E3,-3.2923567E3,-3.6705356E2,-1.7250983E3,1.0994655E3,4.098597E2,-6.2906396E2,5.8222314E2,6.191513E2,2.3678496E3,1.1833988E3,3.1944925E2,3.3776082E3,2.218079E3,2.28505E3,1.4887117E3,-2.0591832E2,7.3977075E2,1.1337115E3,-2.3679087E3],"categories":[],"categories_nodes":[],"categories_segments":[],"categories_sizes":[],"default_left":[0,0,0,0,0,0,0,0,0,0,0,0,0,0,0,0,0,0,0,0,0,0,0,0,0,0,0,0,0,0,0,0,0,0,0,0,0,0,0,0,0,0,0,0,0,0,0,0,0,0,0,0,0,0,0,0,0,0,0,0,0,0,0,0,0,0,0,0,0,0,0,0,0,0,0,0,0,0,0,0,0,0,0,0,0,0,0,0,0,0,0,0,0,0,0,0,0,0,0,0,0,0,0,0,0,0,0,0,0,0,0,0,0,0,0,0,0,0,0,0,0,0,0,0,0,0,0],"id":7,"left_children":[1,3,5,7,9,11,13,15,17,19,21,23,25,27,29,31,33,35,37,39,41,43,45,47,49,51,53,55,57,59,61,63,65,67,69,71,73,75,77,79,81,83,85,87,89,91,93,95,97,99,101,103,105,107,109,111,113,115,117,119,121,123,125,-1,-1,-1,-1,-1,-1,-1,-1,-1,-1,-1,-1,-1,-1,-1,-1,-1,-1,-1,-1,-1,-1,-1,-1,-1,-1,-1,-1,-1,-1,-1,-1,-1,-1,-1,-1,-1,-1,-1,-1,-1,-1,-1,-1,-1,-1,-1,-1,-1,-1,-1,-1,-1,-1,-1,-1,-1,-1,-1,-1,-1,-1,-1,-1],"loss_changes":[6.699023E11,2.7947385E10,4.2865754E10,1.8367218E10,1.247463E10,7.836356E10,2.7679425E10,1.2829147E10,1.1344042E10,8.0952033E9,3.8036E9,3.069621E10,1.9318518E10,2.9177987E10,3.0343578E10,6.652578E9,9.576915E9,2.6209505E9,1.167607E10,5.4500884E9,1.3043132E10,5.1305114E8,3.6397809E9,4.115754E10,4.1218904E10,2.2162125E10,1.3076849E10,2.3828447E10,2.7711455E10,7.326384E9,1.4195007E10,4.6140795E9,1.9100032E9,4.715016E9,4.6868644E9,9.7540506E8,9.038326E8,9.454133E9,4.931154E9,4.519117E9,1.2493647E9,2.371589E9,4.0222515E9,2.2302157E8,1.624215E8,2.0336709E9,4.0550625E9,2.5085886E10,2.2284804E10,4.607211E9,5.695543E10,1.775721E10,5.1957453E9,6.942081E9,1.7647252E9,1.3612954E10,2.0971768E10,3.032513E10,1.2591313E10,1.9005317E9,7.0392054E9,1.6524115E9,1.3024731E10,0E0,0E0,0E0,0E0,0E0,0E0,0E0,0E0,0E0,0E0,0E0,0E0,0E0,0E0,0E0,0E0,0E0,0E0,0E0,0E0,0E0,0E0,0E0,0E0,0E0,0E0,0E0,0E0,0E0,0E0,0E0,0E0,0E0,0E0,0E0,0E0,0E0,0E0,0E0,0E0,0E0,0E0,0E0,0E0,0E0,0E0,0E0,0E0,0E0,0E0,0E0,0E0,0E0,0E0,0E0,0E0,0E0,0E0,0E0,0E0,0E0,0E0,0E0,0E0],"parents":[2147483647,0,0,1,1,2,2,3,3,4,4,5,5,6,6,7,7,8,8,9,9,10,10,11,11,12,12,13,13,14,14,15,15,16,16,17,17,18,18,19,19,20,20,21,21,22,22,23,23,24,24,25,25,26,26,27,27,28,28,29,29,30,30,31,31,32,32,33,33,34,34,35,35,36,36,37,37,38,38,39,39,40,40,41,41,42,42,43,43,44,44,45,45,46,46,47,47,48,48,49,49,50,50,51,51,52,52,53,53,54,54,55,55,56,56,57,57,58,58,59,59,60,60,61,61,62,62],"right_children":[2,4,6,8,10,12,14,16,18,20,22,24,26,28,30,32,34,36,38,40,42,44,46,48,50,52,54,56,58,60,62,64,66,68,70,72,74,76,78,80,82,84,86,88,90,92,94,96,98,100,102,104,106,108,110,112,114,116,118,120,122,124,126,-1,-1,-1,-1,-1,-1,-1,-1,-1,-1,-1,-1,-1,-1,-1,-1,-1,-1,-1,-1,-1,-1,-1,-1,-1,-1,-1,-1,-1,-1,-1,-1,-1,-1,-1,-1,-1,-1,-1,-1,-1,-1,-1,-1,-1,-1,-1,-1,-1,-1,-1,-1,-1,-1,-1,-1,-1,-1,-1,-1,-1,-1,-1,-1],"split_conditions":[7.5E-1,4.2857143E-1,1E0,1E0,5E-1,5.335016E-1,7.1428573E-1,1.4285715E-1,1.5878843E-1,7.1428573E-1,9.93575E-2,6.666667E-1,8.5714287E-1,7.1428573E-1,8.5714287E-1,1E0,5.714286E-1,6.666667E-1,3.2514915E-1,6.558054E-1,8.5714287E-1,4.199174E-2,2.4277191E-1,4.3988067E-1,2.620468E-1,1E0,1E0,3.2514915E-1,2.857143E-1,1.2244898E-1,1.3377696E-1,4.359798E-1,6.122449E-2,1E0,6.666667E-1,1.4285715E-1,2.857143E-1,5E-1,2.857143E-1,2.857143E-1,2.857143E-1,2.5E-1,7.1428573E-1,1.4285715E-1,8.5714287E-1,1.6636072E-1,6.406609E-1,3.3333334E-1,1E0,2.0261587E-1,4.3988067E-1,1E0,1.4285715E-1,5.4681045E-1,2.857143E-1,4.2857143E-1,5.0298303E-1,1.4285715E-1,1E0,1E0,2.2762735E-1,5.714286E-1,5.927031E-1,5.6875464E2,-1.15837715E2,4.8928323E2,-5.310293E2,-4.7890253E2,4.982224E1,-5.5141483E1,-3.207912E2,1.3368634E2,-4.5650397E2,-3.2058002E2,-6.6573685E1,1.5011237E2,7.0265326E2,-4.3639703E2,-4.0705724E0,-6.2190784E2,-4.3844058E2,-4.6630002E2,3.6101538E2,6.311505E2,-8.347425E1,-5.131354E2,-1.5262747E2,-4.2223276E2,-8.5830896E2,-4.1065494E2,-6.464645E2,-1.7693573E2,1.4641612E2,-2.6358817E2,3.0658224E2,5.199567E1,8.88155E2,2.3862478E3,8.2515906E2,-1.541856E2,-7.506433E2,8.1373035E2,-9.3853375E2,-8.5763916E2,6.450691E2,-6.530249E2,-3.3773425E3,-7.563228E3,-3.2923567E3,-3.6705356E2,-1.7250983E3,1.0994655E3,4.098597E2,-6.2906396E2,5.8222314E2,6.191513E2,2.3678496E3,1.1833988E3,3.1944925E2,3.3776082E3,2.218079E3,2.28505E3,1.4887117E3,-2.0591832E2,7.3977075E2,1.1337115E3,-2.3679087E3],"split_indices":[2,5,16,16,2,0,4,3,0,3,0,16,4,3,4,11,3,1,0,0,3,0,0,0,0,3,6,0,4,5,0,0,5,1,16,3,4,2,4,4,4,2,4,3,4,0,0,16,6,0,0,6,4,0,5,3,0,4,6,6,0,3,0,0,0,0,0,0,0,0,0,0,0,0,0,0,0,0,0,0,0,0,0,0,0,0,0,0,0,0,0,0,0,0,0,0,0,0,0,0,0,0,0,0,0,0,0,0,0,0,0,0,0,0,0,0,0,0,0,0,0,0,0,0,0,0,0],"split_type":[0,0,0,0,0,0,0,0,0,0,0,0,0,0,0,0,0,0,0,0,0,0,0,0,0,0,0,0,0,0,0,0,0,0,0,0,0,0,0,0,0,0,0,0,0,0,0,0,0,0,0,0,0,0,0,0,0,0,0,0,0,0,0,0,0,0,0,0,0,0,0,0,0,0,0,0,0,0,0,0,0,0,0,0,0,0,0,0,0,0,0,0,0,0,0,0,0,0,0,0,0,0,0,0,0,0,0,0,0,0,0,0,0,0,0,0,0,0,0,0,0,0,0,0,0,0,0],"sum_hessian":[3.09789E5,2.23789E5,8.6E4,9.4481E4,1.29308E5,4.676E4,3.924E4,5.4263E4,4.0218E4,1.0177E5,2.7538E4,4.2916E4,3.844E3,2.5505E4,1.3735E4,5.58E3,4.8683E4,1.1394E4,2.8824E4,6.9608E4,3.2162E4,2.243E3,2.5295E4,2.2133E4,2.0783E4,3.241E3,6.03E2,1.5457E4,1.0048E4,5.339E3,8.396E3,4.164E3,1.416E3,2.4635E4,2.4048E4,4.643E3,6.751E3,1.6748E4,1.2076E4,6.8544E4,1.064E3,1.3289E4,1.8873E4,6.91E2,1.552E3,7.451E3,1.7844E4,1.8582E4,3.551E3,4.854E3,1.5929E4,2.89E3,3.51E2,2.34E2,3.69E2,1.0313E4,5.144E3,3.974E3,6.074E3,5.44E2,4.795E3,1.162E3,7.234E3,2.886E3,1.278E3,1.9E2,1.226E3,2.301E4,1.625E3,1.2938E4,1.111E4,2.67E2,4.376E3,1.677E3,5.074E3,1.3217E4,3.531E3,3.247E3,8.829E3,1.5673E4,5.2871E4,2.02E2,8.62E2,4.31E2,1.2858E4,1.5475E4,3.398E3,1.34E2,5.57E2,1.211E3,3.41E2,2.809E3,4.642E3,1.6641E4,1.203E3,4.161E3,1.4421E4,2.252E3,1.299E3,2.91E3,1.944E3,1.4035E4,1.894E3,1.655E3,1.235E3,8.3E1,2.68E2,4.2E1,1.92E2,1.38E2,2.31E2,5.27E3,5.043E3,2.592E3,2.552E3,1.355E3,2.619E3,3.046E3,3.028E3,3.13E2,2.31E2,1.429E3,3.366E3,9.62E2,2E2,7.138E3,9.6E1],"tree_param":{"num_deleted":"0","num_feature":"17","num_nodes":"127","size_leaf_vector":"1"}},{"base_weights":[3.2932845E-1,-6.377955E2,1.6608442E3,4.637551E1,-7.4699335E2,1.9690718E3,3.1788263E2,-1.3371884E3,1.7907944E2,-8.6929407E2,-3.0105676E2,2.5870952E3,1.0961492E3,2.4551093E2,6.8459795E3,-1.1452814E3,-2.2275374E3,-8.891344E2,3.4422946E2,4.6171265E2,-9.1825397E2,-3.8232138E2,1.282349E3,4.6466465E1,2.894718E3,2.0963691E3,5.0315433E2,1.0269755E3,-2.620445E2,-5.735488E2,7.4412397E3,-9.7547516E2,-2.3477168E3,-2.9067246E3,5.7071173E2,1.1284197E2,-9.632071E2,1.1651815E2,1.0432175E3,8.1363916E2,-2.3398052E3,-1.1271458E3,-6.353389E2,-1.4060775E3,-2.4675632E2,6.3494745E2,2.6632246E3,2.2683567E3,-1.3947993E3,9.208137E3,2.765E3,4.999112E3,1.5707938E3,-1.2208334E3,1.1529691E3,2.2146095E2,2.3209446E3,-2.0678628E3,4.9303357E2,-3.2642058E3,1.2839501E3,8.546687E3,4.5310596E3,-3.985533E2,3.8247467E1,6.834155E2,-7.486206E2,-1.0867488E3,-3.8470197E2,1.4653501E3,-1.5457343E2,4.8992215E2,-2.5893323E2,-3.0785712E2,1.2139917E2,4.4020358E2,-7.352913E0,7.4638025E2,2.0347995E2,-7.804797E1,5.2308344E2,-1.180356E3,-2.131446E2,-2.6556857E2,-4.2760223E2,-3.552084E2,-1.4633148E2,-5.126561E2,3.327368E2,-3.6913104E2,-4.539278E1,3.7975003E2,-6.55606E2,1.3617281E3,4.2702753E2,2.5489185E2,5.5459E3,-8.136509E2,4.323117E2,2.2159856E3,3.7581816E3,1.2500579E3,6.437545E2,1.7407223E3,4.281461E2,-1.6354755E2,8.051401E2,-9.778412E2,-1.4723692E2,7.380661E2,1.9942043E2,3.9085367E2,-1.4675359E2,-7.346464E1,9.329108E2,-1.76202E3,-4.8426663E2,5.555141E2,-1.702821E2,-1.0614155E3,-2.842465E2,-6.718597E2,1.025684E3,2.0334863E3,3.8527986E3,4.0276484E3,6.213541E2],"categories":[],"categories_nodes":[],"categories_segments":[],"categories_sizes":[],"default_left":[0,0,0,0,0,0,0,0,0,0,0,0,0,0,0,0,0,0,0,0,0,0,0,0,0,0,0,0,0,0,0,0,0,0,0,0,0,0,0,0,0,0,0,0,0,0,0,0,0,0,0,0,0,0,0,0,0,0,0,0,0,0,0,0,0,0,0,0,0,0,0,0,0,0,0,0,0,0,0,0,0,0,0,0,0,0,0,0,0,0,0,0,0,0,0,0,0,0,0,0,0,0,0,0,0,0,0,0,0,0,0,0,0,0,0,0,0,0,0,0,0,0,0,0,0,0,0],"id":8,"left_children":[1,3,5,7,9,11,13,15,17,19,21,23,25,27,29,31,33,35,37,39,41,43,45,47,49,51,53,55,57,59,61,63,65,67,69,71,73,75,77,79,81,83,85,87,89,91,93,95,97,99,101,103,105,107,109,111,113,115,117,119,121,123,125,-1,-1,-1,-1,-1,-1,-1,-1,-1,-1,-1,-1,-1,-1,-1,-1,-1,-1,-1,-1,-1,-1,-1,-1,-1,-1,-1,-1,-1,-1,-1,-1,-1,-1,-1,-1,-1,-1,-1,-1,-1,-1,-1,-1,-1,-1,-1,-1,-1,-1,-1,-1,-1,-1,-1,-1,-1,-1,-1,-1,-1,-1,-1,-1],"loss_changes":[3.2825944E11,1.6719397E10,3.5598434E10,5.6558044E9,1.0524983E10,3.773263E10,7.583497E9,4.580987E8,4.958995E9,9.869869E9,5.3453855E9,3.2006144E10,1.7197208E10,6.2988585E9,7.815798E8,4.509916E8,9.08214E8,2.794688E8,3.8748111E9,5.300283E9,8.632295E9,5.4832087E9,1.8113024E9,1.417029E10,2.9890478E10,1.6456532E10,2.039597E10,6.5170555E9,1.3129122E10,7.416157E7,4.856535E8,7.583053E8,1.928695E8,4.418268E8,4.428678E8,3.8716486E8,3.023813E8,3.498456E9,3.1523267E9,4.7687834E9,1.5561879E9,6.0606136E9,5.023357E9,3.5202212E9,3.2758026E9,2.4617423E9,1.4982676E9,4.004248E10,1.0030925E10,4.3511726E9,3.1059804E10,4.7376015E9,2.1524433E10,7.4160573E9,8.437242E9,2.963107E9,4.855899E9,4.8916173E9,9.785924E9,4.54276E5,7.536044E7,8.017976E8,1.0005174E9,0E0,0E0,0E0,0E0,0E0,0E0,0E0,0E0,0E0,0E0,0E0,0E0,0E0,0E0,0E0,0E0,0E0,0E0,0E0,0E0,0E0,0E0,0E0,0E0,0E0,0E0,0E0,0E0,0E0,0E0,0E0,0E0,0E0,0E0,0E0,0E0,0E0,0E0,0E0,0E0,0E0,0E0,0E0,0E0,0E0,0E0,0E0,0E0,0E0,0E0,0E0,0E0,0E0,0E0,0E0,0E0,0E0,0E0,0E0,0E0,0E0,0E0,0E0,0E0],"parents":[2147483647,0,0,1,1,2,2,3,3,4,4,5,5,6,6,7,7,8,8,9,9,10,10,11,11,12,12,13,13,14,14,15,15,16,16,17,17,18,18,19,19,20,20,21,21,22,22,23,23,24,24,25,25,26,26,27,27,28,28,29,29,30,30,31,31,32,32,33,33,34,34,35,35,36,36,37,37,38,38,39,39,40,40,41,41,42,42,43,43,44,44,45,45,46,46,47,47,48,48,49,49,50,50,51,51,52,52,53,53,54,54,55,55,56,56,57,57,58,58,59,59,60,60,61,61,62,62],"right_children":[2,4,6,8,10,12,14,16,18,20,22,24,26,28,30,32,34,36,38,40,42,44,46,48,50,52,54,56,58,60,62,64,66,68,70,72,74,76,78,80,82,84,86,88,90,92,94,96,98,100,102,104,106,108,110,112,114,116,118,120,122,124,126,-1,-1,-1,-1,-1,-1,-1,-1,-1,-1,-1,-1,-1,-1,-1,-1,-1,-1,-1,-1,-1,-1,-1,-1,-1,-1,-1,-1,-1,-1,-1,-1,-1,-1,-1,-1,-1,-1,-1,-1,-1,-1,-1,-1,-1,-1,-1,-1,-1,-1,-1,-1,-1,-1,-1,-1,-1,-1,-1,-1,-1,-1,-1,-1],"split_conditions":[7.5E-1,1.4285715E-1,8.367347E-1,3.3333334E-1,5E-1,1E0,1E0,3.5176685E-1,9.3620926E-2,2.5E-1,6.406609E-1,1.4285715E-1,4.2857143E-1,4.2857143E-1,1.7599817E-1,1E0,6.406609E-1,1.4285715E-1,5E-1,5.2776504E-1,1E0,1.4285715E-1,7.1428573E-1,2.5998163E-1,2.0408163E-2,2.857143E-1,5.714286E-1,7.1428573E-1,5.714286E-1,8.979592E-1,2.6571822E-1,7.1428573E-1,2.5E-1,7.1428573E-1,2.0408163E-2,6.122449E-2,6.666667E-1,1.4285715E-1,2.2762735E-1,2.1982561E-1,1E0,6.666667E-1,1.3194126E-1,1E0,9.93575E-2,5.714286E-1,4.0816328E-1,2.5240937E-1,4.5502526E-1,7.1428573E-1,4.2857143E-1,6.3265306E-1,5.714286E-1,2.857143E-1,2.857143E-1,4.2857143E-1,1.4285715E-1,1.4285715E-1,4.2857143E-1,1.73933E-1,1.6636072E-1,2.2189078E-1,1.4285715E-1,-3.985533E2,3.8247467E1,6.834155E2,-7.486206E2,-1.0867488E3,-3.8470197E2,1.4653501E3,-1.5457343E2,4.8992215E2,-2.5893323E2,-3.0785712E2,1.2139917E2,4.4020358E2,-7.352913E0,7.4638025E2,2.0347995E2,-7.804797E1,5.2308344E2,-1.180356E3,-2.131446E2,-2.6556857E2,-4.2760223E2,-3.552084E2,-1.4633148E2,-5.126561E2,3.327368E2,-3.6913104E2,-4.539278E1,3.7975003E2,-6.55606E2,1.3617281E3,4.2702753E2,2.5489185E2,5.5459E3,-8.136509E2,4.323117E2,2.2159856E3,3.7581816E3,1.2500579E3,6.437545E2,1.7407223E3,4.281461E2,-1.6354755E2,8.051401E2,-9.778412E2,-1.4723692E2,7.380661E2,1.9942043E2,3.9085367E2,-1.4675359E2,-7.346464E1,9.329108E2,-1.76202E3,-4.8426663E2,5.555141E2,-1.702821E2,-1.0614155E3,-2.842465E2,-6.718597E2,1.025684E3,2.0334863E3,3.8527986E3,4.0276484E3,6.213541E2],"split_indices":[2,5,5,16,2,6,1,0,0,2,0,3,4,3,0,3,0,3,2,0,16,4,4,0,5,3,4,4,3,5,0,3,2,3,5,5,1,3,0,0,16,16,0,1,0,4,5,0,0,3,3,5,3,3,3,4,3,4,4,0,0,0,3,0,0,0,0,0,0,0,0,0,0,0,0,0,0,0,0,0,0,0,0,0,0,0,0,0,0,0,0,0,0,0,0,0,0,0,0,0,0,0,0,0,0,0,0,0,0,0,0,0,0,0,0,0,0,0,0,0,0,0,0,0,0,0,0],"split_type":[0,0,0,0,0,0,0,0,0,0,0,0,0,0,0,0,0,0,0,0,0,0,0,0,0,0,0,0,0,0,0,0,0,0,0,0,0,0,0,0,0,0,0,0,0,0,0,0,0,0,0,0,0,0,0,0,0,0,0,0,0,0,0,0,0,0,0,0,0,0,0,0,0,0,0,0,0,0,0,0,0,0,0,0,0,0,0,0,0,0,0,0,0,0,0,0,0,0,0,0,0,0,0,0,0,0,0,0,0,0,0,0,0,0,0,0,0,0,0,0,0,0,0,0,0,0,0],"sum_hessian":[3.09789E5,2.23789E5,8.6E4,3.0802E4,1.92987E5,6.9946E4,1.6054E4,2.695E3,2.8107E4,1.5145E5,4.1537E4,4.0951E4,2.8995E4,1.5879E4,1.75E2,2.219E3,4.76E2,3.763E3,2.4344E4,5.373E3,1.46077E5,3.951E4,2.027E3,4.423E3,3.6528E4,1.0791E4,1.8204E4,6.252E3,9.627E3,1.3E1,1.62E2,1.946E3,2.73E2,3.83E2,9.3E1,2.59E2,3.504E3,1.8363E4,5.981E3,4.774E3,5.99E2,8.403E4,6.2047E4,4.619E3,3.4891E4,1.381E3,6.46E2,1.74E3,2.683E3,7.34E2,3.5794E4,1.653E3,9.138E3,4.983E3,1.3221E4,3.854E3,2.398E3,2.838E3,6.789E3,5E0,8E0,1.16E2,4.6E1,1.474E3,4.72E2,8E0,2.65E2,2.65E2,1.18E2,1.8E1,7.5E1,1.01E2,1.58E2,3.35E3,1.54E2,1.735E3,1.6628E4,1.205E3,4.776E3,2.216E3,2.558E3,3.02E2,2.97E2,4.6395E4,3.7635E4,1.3149E4,4.8898E4,4.123E3,4.96E2,3.085E3,3.1806E4,1.129E3,2.52E2,2.56E2,3.9E2,1.601E3,1.39E2,1.832E3,8.51E2,4.76E2,2.58E2,1.0964E4,2.483E4,1.349E3,3.04E2,3.15E3,5.988E3,1.313E3,3.67E3,3.594E3,9.627E3,1.528E3,2.326E3,5.64E2,1.834E3,3.01E2,2.537E3,2.976E3,3.813E3,4E0,1E0,3E0,5E0,8.4E1,3.2E1,9E0,3.7E1],"tree_param":{"num_deleted":"0","num_feature":"17","num_nodes":"127","size_leaf_vector":"1"}},{"base_weights":[3.0885258E-1,-4.4645868E2,1.1628779E3,-2.4443022E2,-7.065758E2,2.364906E3,9.0298926E2,-1.1480587E3,-1.6377043E2,-1.1001886E3,-5.7253394E2,1.7523157E3,3.6314104E3,8.4567065E2,6.241655E3,-1.3512065E3,-6.6303253E2,-3.4579593E2,2.3321034E2,-1.1814592E3,-1.785627E2,-9.464149E2,-4.0724637E2,-1.4726453E3,1.9581887E3,5.9350967E3,2.4098655E3,-8.988063E2,1.0203629E3,6.8863716E3,-7.5568213E3,-1.2361221E3,-2.0337252E3,2.4940935E3,-1.0148611E3,5.535744E2,-4.9513477E2,9.561365E2,-2.1736601E2,-1.5244595E3,-9.917095E2,-2.8315076E2,3.4190962E3,-1.02267883E3,5.7582263E2,-3.406478E2,-1.5801277E3,7.484005E3,-2.359347E3,3.2115305E3,1.1996726E3,4.9166953E3,9.840414E3,4.7223706E3,6.994973E2,1.370815E3,-2.0124259E3,1.9305676E3,6.125205E2,-4.204106E2,7.4221753E3,-9.660696E3,3.1912253E3,-3.9081274E2,1.24815636E2,4.4011096E2,-6.489886E2,2.0909932E2,1.2859902E3,-4.2472272E2,3.6771927E1,6.026025E1,8.069252E2,-2.1725194E2,-3.1333183E1,1.5831151E2,4.510635E2,-1.1027569E2,3.051361E2,-4.012127E2,-6.6119476E2,3.9296048E2,-3.1858698E2,7.697701E1,-2.1198714E2,1.4572928E3,-5.470488E2,-5.2713556E2,-2.8487857E2,1.4876703E3,-1.9797238E2,-5.632932E1,-2.2217543E2,-8.6501794E2,-4.2022754E2,1.9746783E3,5.268334E3,9.3303955E1,-1.1690376E3,1.7021951E2,1.3160823E3,5.342571E2,-3.65381E1,-9.517091E1,1.6437721E3,3.5960444E3,1.8187036E3,2.1705103E3,5.203808E2,-8.5411554E2,9.7758704E2,-8.458046E2,5.4056647E2,-1.3234501E3,-2.9959094E2,2.3347539E2,8.5605927E2,-2.3344585E2,3.309219E2,1.053883E3,-2.2386578E2,2.7918147E3,1.2743436E3,-3.7853484E3,-6.566817E2],"categories":[],"categories_nodes":[],"categories_segments":[],"categories_sizes":[],"default_left":[0,0,0,0,0,0,0,0,0,0,0,0,0,0,0,0,0,0,0,0,0,0,0,0,0,0,0,0,0,0,0,0,0,0,0,0,0,0,0,0,0,0,0,0,0,0,0,0,0,0,0,0,0,0,0,0,0,0,0,0,0,0,0,0,0,0,0,0,0,0,0,0,0,0,0,0,0,0,0,0,0,0,0,0,0,0,0,0,0,0,0,0,0,0,0,0,0,0,0,0,0,0,0,0,0,0,0,0,0,0,0,0,0,0,0,0,0,0,0,0,0,0,0,0,0],"id":9,"left_children":[1,3,5,7,9,11,13,15,17,19,21,23,25,27,29,31,33,35,37,39,41,43,45,47,49,51,53,55,57,59,61,63,65,67,69,71,73,75,77,79,81,83,85,87,89,91,93,95,97,99,101,103,105,107,109,111,113,115,117,119,121,123,-1,-1,-1,-1,-1,-1,-1,-1,-1,-1,-1,-1,-1,-1,-1,-1,-1,-1,-1,-1,-1,-1,-1,-1,-1,-1,-1,-1,-1,-1,-1,-1,-1,-1,-1,-1,-1,-1,-1,-1,-1,-1,-1,-1,-1,-1,-1,-1,-1,-1,-1,-1,-1,-1,-1,-1,-1,-1,-1,-1,-1,-1,-1],"loss_changes":[1.6090487E11,1.176023E10,2.6864026E10,9.180666E9,5.1609395E9,1.1854799E10,2.1633556E10,1.01615104E9,8.356298E9,1.8611589E9,4.5096243E9,6.8453765E9,1.400814E10,2.1322207E10,6.733017E9,5.6883814E8,3.3892598E9,1.0649249E10,1.1842247E10,1.4848164E9,7.591565E8,2.5977938E9,3.952642E9,4.933679E9,9.206333E9,6.8162314E9,1.2882852E10,1.6100374E10,2.3606923E10,2.8140913E9,1.4042307E9,6.8559565E8,4.7853978E8,9.827506E8,1.251372E9,8.5065953E9,6.0844237E9,3.2729672E9,4.1537636E9,1.03085466E9,2.3790438E9,4.4794154E8,4.3873555E8,1.141889E9,5.7878845E9,2.9280947E9,6.315699E8,3.9327872E8,2.3167316E9,1.134771E10,4.636725E9,4.038398E9,2.8142264E9,1.0384998E10,1.7017824E10,3.7928225E9,1.0388197E10,2.0926235E10,2.9962326E10,6.6697456E7,3.9611556E9,6.573243E8,0E0,0E0,0E0,0E0,0E0,0E0,0E0,0E0,0E0,0E0,0E0,0E0,0E0,0E0,0E0,0E0,0E0,0E0,0E0,0E0,0E0,0E0,0E0,0E0,0E0,0E0,0E0,0E0,0E0,0E0,0E0,0E0,0E0,0E0,0E0,0E0,0E0,0E0,0E0,0E0,0E0,0E0,0E0,0E0,0E0,0E0,0E0,0E0,0E0,0E0,0E0,0E0,0E0,0E0,0E0,0E0,0E0,0E0,0E0,0E0,0E0,0E0,0E0],"parents":[2147483647,0,0,1,1,2,2,3,3,4,4,5,5,6,6,7,7,8,8,9,9,10,10,11,11,12,12,13,13,14,14,15,15,16,16,17,17,18,18,19,19,20,20,21,21,22,22,23,23,24,24,25,25,26,26,27,27,28,28,29,29,30,30,31,31,32,32,33,33,34,34,35,35,36,36,37,37,38,38,39,39,40,40,41,41,42,42,43,43,44,44,45,45,46,46,47,47,48,48,49,49,50,50,51,51,52,52,53,53,54,54,55,55,56,56,57,57,58,58,59,59,60,60,61,61],"right_children":[2,4,6,8,10,12,14,16,18,20,22,24,26,28,30,32,34,36,38,40,42,44,46,48,50,52,54,56,58,60,62,64,66,68,70,72,74,76,78,80,82,84,86,88,90,92,94,96,98,100,102,104,106,108,110,112,114,116,118,120,122,124,-1,-1,-1,-1,-1,-1,-1,-1,-1,-1,-1,-1,-1,-1,-1,-1,-1,-1,-1,-1,-1,-1,-1,-1,-1,-1,-1,-1,-1,-1,-1,-1,-1,-1,-1,-1,-1,-1,-1,-1,-1,-1,-1,-1,-1,-1,-1,-1,-1,-1,-1,-1,-1,-1,-1,-1,-1,-1,-1,-1,-1,-1,-1],"split_conditions":[7.5E-1,5.714286E-1,2.0408164E-1,3.3333334E-1,2.857143E-1,7.1428573E-1,1E0,7.1428573E-1,7.1428573E-1,1E0,2.857143E-1,3.3333334E-1,8.5714287E-1,1.4285715E-1,3.402937E-1,5E-1,1.4285715E-1,1.4285715E-1,8.5714287E-1,1.4285715E-1,7.9554844E-1,1E0,1E0,2.857143E-1,2.857143E-1,1.632653E-1,4.2857143E-1,4.2857143E-1,4.2857143E-1,1.73933E-1,1E0,1E0,2.0408163E-2,1E0,7.1428573E-1,1E0,7.1428573E-1,1E0,1E0,8.5714287E-1,2.5E-1,3.23084E-1,1.4285715E-1,5.3464893E-2,4.2857143E-1,8.5714287E-1,4.2857143E-1,1E0,2.5998163E-1,1.4285715E-1,3.9398807E-1,1.4285715E-1,1E0,1E0,5.714286E-1,1.6245985E-1,5.714286E-1,5.714286E-1,5.714286E-1,4.2857143E-1,1E0,3.6734694E-1,3.1912253E3,-3.9081274E2,1.24815636E2,4.4011096E2,-6.489886E2,2.0909932E2,1.2859902E3,-4.2472272E2,3.6771927E1,6.026025E1,8.069252E2,-2.1725194E2,-3.1333183E1,1.5831151E2,4.510635E2,-1.1027569E2,3.051361E2,-4.012127E2,-6.6119476E2,3.9296048E2,-3.1858698E2,7.697701E1,-2.1198714E2,1.4572928E3,-5.470488E2,-5.2713556E2,-2.8487857E2,1.4876703E3,-1.9797238E2,-5.632932E1,-2.2217543E2,-8.6501794E2,-4.2022754E2,1.9746783E3,5.268334E3,9.3303955E1,-1.1690376E3,1.7021951E2,1.3160823E3,5.342571E2,-3.65381E1,-9.517091E1,1.6437721E3,3.5960444E3,1.8187036E3,2.1705103E3,5.203808E2,-8.5411554E2,9.7758704E2,-8.458046E2,5.4056647E2,-1.3234501E3,-2.9959094E2,2.3347539E2,8.5605927E2,-2.3344585E2,3.309219E2,1.053883E3,-2.2386578E2,2.7918147E3,1.2743436E3,-3.7853484E3,-6.566817E2],"split_indices":[2,5,5,16,4,3,1,4,3,1,3,16,3,4,0,2,3,3,3,4,0,1,7,4,3,5,4,3,4,0,6,1,5,15,3,6,4,15,1,3,2,0,4,0,4,4,3,1,0,3,0,4,6,6,4,0,3,3,4,3,6,5,0,0,0,0,0,0,0,0,0,0,0,0,0,0,0,0,0,0,0,0,0,0,0,0,0,0,0,0,0,0,0,0,0,0,0,0,0,0,0,0,0,0,0,0,0,0,0,0,0,0,0,0,0,0,0,0,0,0,0,0,0,0,0],"split_type":[0,0,0,0,0,0,0,0,0,0,0,0,0,0,0,0,0,0,0,0,0,0,0,0,0,0,0,0,0,0,0,0,0,0,0,0,0,0,0,0,0,0,0,0,0,0,0,0,0,0,0,0,0,0,0,0,0,0,0,0,0,0,0,0,0,0,0,0,0,0,0,0,0,0,0,0,0,0,0,0,0,0,0,0,0,0,0,0,0,0,0,0,0,0,0,0,0,0,0,0,0,0,0,0,0,0,0,0,0,0,0,0,0,0,0,0,0,0,0,0,0,0,0,0,0],"sum_hessian":[3.09789E5,2.23789E5,8.6E4,1.2596E5,9.7829E4,1.5287E4,7.0713E4,1.0321E4,1.15639E5,2.485E4,7.2979E4,1.0305E4,4.982E3,6.9963E4,7.5E2,7.273E3,3.048E3,7.9285E4,3.6354E4,2.2836E4,2.014E3,2.2371E4,5.0608E4,6.18E2,9.687E3,1.725E3,3.257E3,6.368E3,6.3595E4,7.17E2,3.3E1,6.226E3,1.047E3,3.05E2,2.743E3,1.129E4,6.7995E4,1.3958E4,2.2396E4,8.131E3,1.4705E4,1.958E3,5.6E1,2.1304E4,1.067E3,4.789E4,2.718E3,5.5E1,5.63E2,3.651E3,6.036E3,1.37E3,3.55E2,1.384E3,1.873E3,2.096E3,4.272E3,1.9677E4,4.3918E4,4.9E1,6.68E2,3E1,3E0,5.985E3,2.41E2,3.7E1,1.01E3,1.53E2,1.52E2,2.028E3,7.15E2,9.691E3,1.599E3,4.2865E4,2.513E4,7.831E3,6.127E3,1.9967E4,2.429E3,6.378E3,1.753E3,4.35E2,1.427E4,8.61E2,1.097E3,4.4E1,1.2E1,1.926E3,1.9378E4,2.34E2,8.33E2,3.4647E4,1.3243E4,3.27E2,2.391E3,5.2E1,3E0,2.06E2,3.57E2,1.124E3,2.527E3,4.192E3,1.844E3,1.33E2,1.237E3,2.25E2,1.3E2,7.51E2,6.33E2,7.85E2,1.088E3,1.95E2,1.901E3,1.268E3,3.004E3,8.752E3,1.0925E4,1.1452E4,3.2466E4,3E0,4.6E1,4.18E2,2.5E2,2.1E1,9E0],"tree_param":{"num_deleted":"0","num_feature":"17","num_nodes":"125","size_leaf_vector":"1"}},{"base_weights":[2.8585267E-1,-3.125177E2,8.1425665E2,-8.8192236E2,-2.5261745E2,3.9531424E2,1.313463E3,-9.044397E2,1.4058788E3,-3.9433057E2,6.1586624E1,6.6335034E2,-2.5965457E3,2.0224586E3,7.6557104E2,-7.74444E2,-1.2361849E3,1.2631142E4,1.1238582E3,-6.0152313E2,-1.03731575E1,5.696179E2,-2.7659164E2,1.2578043E3,3.0252464E1,-4.3266265E3,-7.478702E2,4.0606708E2,3.0160898E3,1.8415025E2,2.0639119E3,-5.262304E2,-1.219923E3,-1.5184098E3,-9.625305E2,5.256249E3,7.0285117E3,-5.0667316E2,1.8067648E3,4.413611E2,-6.435658E2,5.783494E2,-4.1161816E2,6.336831E2,-1.4278638E3,2.3729997E2,-6.582945E2,8.922617E2,3.4548293E3,-1.4757086E3,7.6538617E2,-3.49963E3,-1.0473737E4,1.9241165E1,-5.4060303E3,-3.6616301E3,6.161506E2,4.3775903E3,9.637819E2,1.0767612E3,-1.0895603E3,1.9850798E3,7.928855E3,-2.6275067E2,-7.609325E1,-4.983726E2,-2.3197281E2,-4.3237512E2,-9.192048E2,-2.6605936E2,-5.4225073E2,1.7371178E2,3.9565396E3,-4.4073923E2,2.5363434E2,8.7737555E2,1.3241782E2,-1.10092155E2,3.580476E2,-1.17628075E2,-2.2915019E2,4.9072853E1,3.5422064E2,4.132841E1,-3.3132196E2,9.953243E1,2.8100433E2,-5.1386694E2,2.788505E2,1.5412964E2,-4.6096243E2,-5.279641E2,-2.3583912E1,1.5158602E3,2.2508989E2,-9.315398E2,1.2223152E3,-6.7189685E2,-3.3053432E1,4.3505518E2,-7.9083374E2,-1.11707596E2,-1.5057552E3,1.4389438E3,-3.4610073E3,2.8959653E2,-1.094064E3,-1.8884358E3,6.5975027E0,2.7082797E2,-1.9324498E3,-1.4397798E2,4.6641296E2,1.1806322E3,3.273691E3,4.6952908E2,-2.4673074E2,-3.8331323E2,4.196072E2,-8.3700836E2,2.805554E2,-5.271689E2,7.2922925E2],"categories":[],"categories_nodes":[],"categories_segments":[],"categories_sizes":[],"default_left":[0,0,0,0,0,0,0,0,0,0,0,0,0,0,0,0,0,0,0,0,0,0,0,0,0,0,0,0,0,0,0,0,0,0,0,0,0,0,0,0,0,0,0,0,0,0,0,0,0,0,0,0,0,0,0,0,0,0,0,0,0,0,0,0,0,0,0,0,0,0,0,0,0,0,0,0,0,0,0,0,0,0,0,0,0,0,0,0,0,0,0,0,0,0,0,0,0,0,0,0,0,0,0,0,0,0,0,0,0,0,0,0,0,0,0,0,0,0,0,0,0,0,0],"id":10,"left_children":[1,3,5,7,9,11,13,15,17,19,21,23,25,27,29,31,33,35,37,39,41,43,45,47,49,51,53,55,57,59,61,63,65,67,69,-1,71,73,75,77,79,81,83,85,87,89,91,93,95,97,99,101,103,105,107,109,111,113,115,117,119,121,-1,-1,-1,-1,-1,-1,-1,-1,-1,-1,-1,-1,-1,-1,-1,-1,-1,-1,-1,-1,-1,-1,-1,-1,-1,-1,-1,-1,-1,-1,-1,-1,-1,-1,-1,-1,-1,-1,-1,-1,-1,-1,-1,-1,-1,-1,-1,-1,-1,-1,-1,-1,-1,-1,-1,-1,-1,-1,-1,-1,-1],"loss_changes":[7.88768E10,7.632689E9,1.7985618E10,1.0985974E9,9.016263E9,3.750061E10,1.5241732E10,9.087324E8,6.4428134E8,1.1101633E10,1.0813746E10,1.6151669E10,1.2294449E10,2.747106E10,1.671045E10,1.6754381E9,4.5706547E8,1.3830272E7,2.2806958E8,3.9744061E9,1.1554329E10,3.219838E9,7.4124196E9,1.7772872E10,2.3010738E10,1.0059452E10,6.646492E9,5.567979E9,2.9594935E10,1.7385939E10,1.3099176E10,9.275945E8,1.0677422E9,3.4393702E8,1.9129062E8,0E0,1.5127714E8,8.062497E7,2.1848768E8,2.1362492E9,2.6347807E9,4.953155E9,1.1071154E10,2.2292736E9,5.2702618E8,7.899266E9,1.3845948E10,1.1205536E10,1.28435E10,7.112244E9,3.253769E10,8.3237335E9,3.869743E9,5.5460966E9,1.2688993E9,4.066105E9,6.3727206E9,1.8356257E10,4.5403474E9,6.81673E9,2.1697032E10,1.1389276E10,0E0,0E0,0E0,0E0,0E0,0E0,0E0,0E0,0E0,0E0,0E0,0E0,0E0,0E0,0E0,0E0,0E0,0E0,0E0,0E0,0E0,0E0,0E0,0E0,0E0,0E0,0E0,0E0,0E0,0E0,0E0,0E0,0E0,0E0,0E0,0E0,0E0,0E0,0E0,0E0,0E0,0E0,0E0,0E0,0E0,0E0,0E0,0E0,0E0,0E0,0E0,0E0,0E0,0E0,0E0,0E0,0E0,0E0,0E0,0E0,0E0],"parents":[2147483647,0,0,1,1,2,2,3,3,4,4,5,5,6,6,7,7,8,8,9,9,10,10,11,11,12,12,13,13,14,14,15,15,16,16,17,17,18,18,19,19,20,20,21,21,22,22,23,23,24,24,25,25,26,26,27,27,28,28,29,29,30,30,31,31,32,32,33,33,34,34,36,36,37,37,38,38,39,39,40,40,41,41,42,42,43,43,44,44,45,45,46,46,47,47,48,48,49,49,50,50,51,51,52,52,53,53,54,54,55,55,56,56,57,57,58,58,59,59,60,60,61,61],"right_children":[2,4,6,8,10,12,14,16,18,20,22,24,26,28,30,32,34,36,38,40,42,44,46,48,50,52,54,56,58,60,62,64,66,68,70,-1,72,74,76,78,80,82,84,86,88,90,92,94,96,98,100,102,104,106,108,110,112,114,116,118,120,122,-1,-1,-1,-1,-1,-1,-1,-1,-1,-1,-1,-1,-1,-1,-1,-1,-1,-1,-1,-1,-1,-1,-1,-1,-1,-1,-1,-1,-1,-1,-1,-1,-1,-1,-1,-1,-1,-1,-1,-1,-1,-1,-1,-1,-1,-1,-1,-1,-1,-1,-1,-1,-1,-1,-1,-1,-1,-1,-1,-1,-1],"split_conditions":[7.5E-1,5.7365764E-2,1E0,6.666667E-1,7.1428573E-1,5.335016E-1,2.5814593E-1,8.5714287E-1,2.5E-1,7.1428573E-1,8.5714287E-1,6.666667E-1,1E0,1.6062415E-1,5.0091785E-1,1E0,4.2857143E-1,2.857143E-1,2.857143E-1,4.0816326E-2,8.5714287E-1,1E0,4.2857143E-1,4.4561726E-1,2.849931E-1,8.5714287E-1,1E0,1.4285715E-1,1E0,3.2514915E-1,1E0,3.832033E-2,4.2857143E-1,4.979348E-2,8.5714287E-1,5.256249E3,3.6255162E-2,1E0,5.714286E-1,1E0,6.666667E-1,1E0,4.2857143E-1,1E0,1E0,1E0,5.714286E-1,4.0816326E-2,1.4285715E-1,1E0,4.2634237E-1,6.666667E-1,3.3333334E-1,1E0,7.1428573E-1,1.0899495E-1,6.666667E-1,2.5424507E-1,2.3703533E-1,2.6388252E-1,1E0,1.4285715E-1,7.928855E3,-2.6275067E2,-7.609325E1,-4.983726E2,-2.3197281E2,-4.3237512E2,-9.192048E2,-2.6605936E2,-5.4225073E2,1.7371178E2,3.9565396E3,-4.4073923E2,2.5363434E2,8.7737555E2,1.3241782E2,-1.10092155E2,3.580476E2,-1.17628075E2,-2.2915019E2,4.9072853E1,3.5422064E2,4.132841E1,-3.3132196E2,9.953243E1,2.8100433E2,-5.1386694E2,2.788505E2,1.5412964E2,-4.6096243E2,-5.279641E2,-2.3583912E1,1.5158602E3,2.2508989E2,-9.315398E2,1.2223152E3,-6.7189685E2,-3.3053432E1,4.3505518E2,-7.9083374E2,-1.11707596E2,-1.5057552E3,1.4389438E3,-3.4610073E3,2.8959653E2,-1.094064E3,-1.8884358E3,6.5975027E0,2.7082797E2,-1.9324498E3,-1.4397798E2,4.6641296E2,1.1806322E3,3.273691E3,4.6952908E2,-2.4673074E2,-3.8331323E2,4.196072E2,-8.3700836E2,2.805554E2,-5.271689E2,7.2922925E2],"split_indices":[2,0,16,1,4,0,0,3,2,3,4,16,6,0,0,4,4,3,4,5,3,10,3,0,0,4,3,3,6,0,2,0,3,0,4,0,0,16,5,15,16,15,4,16,16,11,3,5,4,6,0,16,16,4,4,0,1,0,0,0,6,4,0,0,0,0,0,0,0,0,0,0,0,0,0,0,0,0,0,0,0,0,0,0,0,0,0,0,0,0,0,0,0,0,0,0,0,0,0,0,0,0,0,0,0,0,0,0,0,0,0,0,0,0,0,0,0,0,0,0,0,0,0],"split_type":[0,0,0,0,0,0,0,0,0,0,0,0,0,0,0,0,0,0,0,0,0,0,0,0,0,0,0,0,0,0,0,0,0,0,0,0,0,0,0,0,0,0,0,0,0,0,0,0,0,0,0,0,0,0,0,0,0,0,0,0,0,0,0,0,0,0,0,0,0,0,0,0,0,0,0,0,0,0,0,0,0,0,0,0,0,0,0,0,0,0,0,0,0,0,0,0,0,0,0,0,0,0,0,0,0,0,0,0,0,0,0,0,0,0,0,0,0,0,0,0,0,0,0],"sum_hessian":[3.09789E5,2.23789E5,8.6E4,2.13E4,2.02489E5,4.676E4,3.924E4,2.1093E4,2.07E2,1.39549E5,6.294E4,4.2916E4,3.844E3,1.7104E4,2.2136E4,1.5157E4,5.936E3,4E0,2.03E2,9.0638E4,4.8911E4,2.5153E4,3.7787E4,2.2133E4,2.0783E4,1.985E3,1.859E3,6.512E3,1.0592E4,1.529E4,6.846E3,9.735E3,5.422E3,2.92E3,3.016E3,1E0,3E0,6E1,1.43E2,3.512E3,8.7126E4,1.9824E4,2.9087E4,2.4372E4,7.81E2,1.6105E4,2.1682E4,1.8977E4,3.156E3,6.817E3,1.3966E4,1.751E3,2.34E2,1.597E3,2.62E2,3.19E2,6.193E3,6.367E3,4.225E3,8.99E3,6.3E3,6.825E3,2.1E1,4.264E3,5.471E3,2.726E3,2.696E3,2.783E3,1.37E2,2.77E3,2.46E2,2E0,1E0,3.5E1,2.5E1,7.8E1,6.5E1,1.693E3,1.819E3,2.8189E4,5.8937E4,1.1741E4,8.083E3,1.6223E4,1.2864E4,1.2209E4,1.2163E4,6.97E2,8.4E1,1.3934E4,2.171E3,7.475E3,1.4207E4,6.25E2,1.8352E4,2.72E2,2.884E3,4.371E3,2.446E3,1.1626E4,2.34E3,5.73E2,1.178E3,1.5E1,2.19E2,1.27E3,3.27E2,2.25E2,3.7E1,1.21E2,1.98E2,2.857E3,3.336E3,5.965E3,4.02E2,3.161E3,1.064E3,1.081E3,7.909E3,3.424E3,2.876E3,7.26E2,6.099E3],"tree_param":{"num_deleted":"0","num_feature":"17","num_nodes":"123","size_leaf_vector":"1"}},{"base_weights":[2.3851736E-1,-2.187342E2,5.7004474E2,-3.667658E2,-2.1513329E1,8.809321E2,-6.358902E1,-1.207217E2,-6.556802E2,1.2969977E3,-5.9731422E1,1.3581554E3,2.180669E2,-7.608843E1,1.4080287E4,-7.848496E2,1.1409768E2,-5.5453723E2,-1.3156079E3,1.9692227E3,-7.785016E2,4.6422025E2,-1.4354417E2,-2.0008252E3,1.515015E3,8.9325037E2,-1.7973616E2,3.9024106E2,-3.767563E2,1.122477E3,4.30655E3,-6.940053E2,-1.2702483E3,-2.515516E2,5.150133E2,-8.7811743E2,-2.144694E2,-1.5617703E3,8.057916E2,2.7883804E3,2.3813922E2,-2.2098394E3,2.0112961E3,3.4829272E2,1.5610509E3,-6.309614E1,-5.418079E2,-3.755313E3,2.52207E3,2.666053E3,1.1360625E3,3.137376E3,4.6702808E2,-8.2358655E2,4.0350583E2,-9.598371E2,8.7569824E2,-1.8344614E3,2.5627243E2,-1.7916875E2,-4.102725E2,-4.85043E2,2.0877476E1,3.33258E2,-9.859382E1,3.1922418E2,7.472188E1,-1.8108972E2,-3.8063477E2,5.868361E2,-8.476088E1,-5.46379E2,-3.1700073E1,-3.8334335E2,4.875027E2,4.1887896E3,7.414638E2,1.0613575E3,-2.1346832E2,-1.6641605E3,-1.9684862E2,-9.208378E2,1.0002339E3,4.2467133E1,3.2359814E2,1.0833254E3,1.7355281E2,2.9016325E1,-1.1654852E2,-2.9871918E2,-7.9822296E1,-8.742355E2,-3.0989934E3,-4.1443362E2,1.7489423E3,1.352314E3,4.2296454E2,-2.8406546E1,5.579977E2,-1.1569219E3,9.9163934E2,-1.8932956E2,3.1413025E2,-1.5826463E2,-4.8872052E2,7.189988E2,-1.5595015E2,2.7452475E2,-5.3272394E2,7.0636795E1,5.457579E2,-3.4103424E2,-1.1433214E3,3.0302655E2,-1.7876518E2],"categories":[],"categories_nodes":[],"categories_segments":[],"categories_sizes":[],"default_left":[0,0,0,0,0,0,0,0,0,0,0,0,0,0,0,0,0,0,0,0,0,0,0,0,0,0,0,0,0,0,0,0,0,0,0,0,0,0,0,0,0,0,0,0,0,0,0,0,0,0,0,0,0,0,0,0,0,0,0,0,0,0,0,0,0,0,0,0,0,0,0,0,0,0,0,0,0,0,0,0,0,0,0,0,0,0,0,0,0,0,0,0,0,0,0,0,0,0,0,0,0,0,0,0,0,0,0,0,0,0,0,0,0,0,0],"id":11,"left_children":[1,3,5,7,9,11,13,15,17,19,21,23,25,27,29,31,33,35,37,39,41,43,45,47,49,51,53,55,57,-1,-1,59,61,63,65,67,69,71,73,75,77,79,81,83,85,87,89,91,93,95,97,99,101,103,105,107,109,111,113,-1,-1,-1,-1,-1,-1,-1,-1,-1,-1,-1,-1,-1,-1,-1,-1,-1,-1,-1,-1,-1,-1,-1,-1,-1,-1,-1,-1,-1,-1,-1,-1,-1,-1,-1,-1,-1,-1,-1,-1,-1,-1,-1,-1,-1,-1,-1,-1,-1,-1,-1,-1,-1,-1,-1,-1],"loss_changes":[3.865325E10,6.5335235E9,1.6941287E10,9.087298E9,4.835293E9,1.8250318E10,5.0056453E9,1.0767195E10,3.9237284E9,3.7727652E9,4.0951194E9,1.7676964E10,6.4868787E9,3.965855E9,1.7336832E7,7.943854E8,7.4776223E9,5.6100495E9,4.0812739E9,2.8949535E9,2.6479055E9,1.6346427E9,2.5757204E9,1.1888711E10,1.3975945E10,8.563003E9,5.7074944E9,7.2679726E9,1.5869331E10,0E0,0E0,9.896115E8,1.3197578E9,2.8024714E9,3.5525274E9,2.8006646E9,3.673498E9,2.6451272E9,1.389805E9,4.8724705E9,2.0613874E9,2.2674708E9,1.5224384E9,1.7561981E9,2.473416E9,3.4782963E9,1.6906698E9,5.9373844E9,5.418099E9,1.8355425E10,2.1483414E10,1.6926413E9,4.7946726E9,1.7217254E9,1.4678122E10,4.4884234E9,4.926328E9,7.1763415E9,7.70325E9,0E0,0E0,0E0,0E0,0E0,0E0,0E0,0E0,0E0,0E0,0E0,0E0,0E0,0E0,0E0,0E0,0E0,0E0,0E0,0E0,0E0,0E0,0E0,0E0,0E0,0E0,0E0,0E0,0E0,0E0,0E0,0E0,0E0,0E0,0E0,0E0,0E0,0E0,0E0,0E0,0E0,0E0,0E0,0E0,0E0,0E0,0E0,0E0,0E0,0E0,0E0,0E0,0E0,0E0,0E0,0E0],"parents":[2147483647,0,0,1,1,2,2,3,3,4,4,5,5,6,6,7,7,8,8,9,9,10,10,11,11,12,12,13,13,14,14,15,15,16,16,17,17,18,18,19,19,20,20,21,21,22,22,23,23,24,24,25,25,26,26,27,27,28,28,31,31,32,32,33,33,34,34,35,35,36,36,37,37,38,38,39,39,40,40,41,41,42,42,43,43,44,44,45,45,46,46,47,47,48,48,49,49,50,50,51,51,52,52,53,53,54,54,55,55,56,56,57,57,58,58],"right_children":[2,4,6,8,10,12,14,16,18,20,22,24,26,28,30,32,34,36,38,40,42,44,46,48,50,52,54,56,58,-1,-1,60,62,64,66,68,70,72,74,76,78,80,82,84,86,88,90,92,94,96,98,100,102,104,106,108,110,112,114,-1,-1,-1,-1,-1,-1,-1,-1,-1,-1,-1,-1,-1,-1,-1,-1,-1,-1,-1,-1,-1,-1,-1,-1,-1,-1,-1,-1,-1,-1,-1,-1,-1,-1,-1,-1,-1,-1,-1,-1,-1,-1,-1,-1,-1,-1,-1,-1,-1,-1,-1,-1,-1,-1,-1,-1],"split_conditions":[7.5E-1,1E0,6.938776E-1,6.666667E-1,2.5E-1,1E0,6.941258E-1,3.3333334E-1,5.2776504E-1,7.755102E-1,1.4285715E-1,3.3333334E-1,4.2857143E-1,4.2857143E-1,3.3333334E-1,3.4809545E-1,1E0,2.8682882E-1,6.291877E-1,3.155117E-1,7.1428573E-1,1E0,1E0,7.1428573E-1,6.666667E-1,2.857143E-1,7.1428573E-1,1.4285715E-1,5.714286E-1,1.122477E3,4.30655E3,1E0,1E0,2.5E-1,4.2857143E-1,1.73933E-1,2.5E-1,1E0,2.857143E-1,3.3333334E-1,1.4285715E-1,8.5714287E-1,1.5878843E-1,5E-1,2.7145478E-1,3.2514915E-1,4.2857143E-1,7.1428573E-1,1.5305185E-1,4.2857143E-1,1E0,6.666667E-1,5.714286E-1,8.5714287E-1,8.5714287E-1,4.2857143E-1,7.1428573E-1,8.5714287E-1,8.5714287E-1,-1.7916875E2,-4.102725E2,-4.85043E2,2.0877476E1,3.33258E2,-9.859382E1,3.1922418E2,7.472188E1,-1.8108972E2,-3.8063477E2,5.868361E2,-8.476088E1,-5.46379E2,-3.1700073E1,-3.8334335E2,4.875027E2,4.1887896E3,7.414638E2,1.0613575E3,-2.1346832E2,-1.6641605E3,-1.9684862E2,-9.208378E2,1.0002339E3,4.2467133E1,3.2359814E2,1.0833254E3,1.7355281E2,2.9016325E1,-1.1654852E2,-2.9871918E2,-7.9822296E1,-8.742355E2,-3.0989934E3,-4.1443362E2,1.7489423E3,1.352314E3,4.2296454E2,-2.8406546E1,5.579977E2,-1.1569219E3,9.9163934E2,-1.8932956E2,3.1413025E2,-1.5826463E2,-4.8872052E2,7.189988E2,-1.5595015E2,2.7452475E2,-5.3272394E2,7.0636795E1,5.457579E2,-3.4103424E2,-1.1433214E3,3.0302655E2,-1.7876518E2],"split_indices":[2,16,5,16,2,6,0,16,0,5,5,16,4,3,1,0,15,0,0,0,4,1,11,3,16,3,4,3,3,0,0,3,4,2,4,0,2,1,4,1,5,5,0,2,0,0,3,4,0,3,16,1,3,3,4,4,4,4,3,0,0,0,0,0,0,0,0,0,0,0,0,0,0,0,0,0,0,0,0,0,0,0,0,0,0,0,0,0,0,0,0,0,0,0,0,0,0,0,0,0,0,0,0,0,0,0,0,0,0,0,0,0,0,0,0],"split_type":[0,0,0,0,0,0,0,0,0,0,0,0,0,0,0,0,0,0,0,0,0,0,0,0,0,0,0,0,0,0,0,0,0,0,0,0,0,0,0,0,0,0,0,0,0,0,0,0,0,0,0,0,0,0,0,0,0,0,0,0,0,0,0,0,0,0,0,0,0,0,0,0,0,0,0,0,0,0,0,0,0,0,0,0,0,0,0,0,0,0,0,0,0,0,0,0,0,0,0,0,0,0,0,0,0,0,0,0,0,0,0,0,0,0,0],"sum_hessian":[3.09789E5,2.23789E5,8.6E4,1.27836E5,9.5953E4,5.7693E4,2.8307E4,6.9041E4,5.8795E4,2.702E3,9.3251E4,3.3543E4,2.415E4,2.8283E4,2.4E1,1.8034E4,5.1007E4,5.0983E4,7.812E3,2.041E3,6.61E2,1.2859E4,8.0392E4,1.496E3,3.2047E4,8.953E3,1.5197E4,1.1087E4,1.7196E4,1E0,2.3E1,1.5193E4,2.841E3,2.6677E4,2.433E4,2.6124E4,2.4859E4,7E3,8.12E2,1.385E3,6.56E2,4.37E2,2.24E2,1.1631E4,1.228E3,6.6883E4,1.3509E4,1.078E3,4.18E2,7.936E3,2.4111E4,1.428E3,7.525E3,7.223E3,7.974E3,2.932E3,8.155E3,5.206E3,1.199E4,1.3286E4,1.907E3,2.257E3,5.84E2,1.428E3,2.5249E4,7.938E3,1.6392E4,1.5345E4,1.0779E4,7.55E2,2.4104E4,5.941E3,1.059E3,2.29E2,5.83E2,3.7E1,1.348E3,1.46E2,5.1E2,1.38E2,2.99E2,4.6E1,1.78E2,9.066E3,2.565E3,3.97E2,8.31E2,4.4854E4,2.2029E4,5.104E3,8.405E3,9.57E2,1.21E2,1.92E2,2.26E2,3.217E3,4.719E3,8.93E3,1.5181E4,3.3E1,1.395E3,2.601E3,4.924E3,5.283E3,1.94E3,2.524E3,5.45E3,8.89E2,2.043E3,4.859E3,3.296E3,3.849E3,1.357E3,6.362E3,5.628E3],"tree_param":{"num_deleted":"0","num_feature":"17","num_nodes":"115","size_leaf_vector":"1"}},{"base_weights":[1.9335105E-1,-2.290873E2,2.9957596E2,-4.8664835E2,-1.4369061E2,2.8458318E3,2.5365593E2,9.2355774E2,-5.4265564E2,-9.462092E1,-8.724102E2,-1.211869E2,3.049727E3,6.058597E2,2.8813194E1,-1.1143241E3,2.2082727E3,-6.1993353E2,4.7054608E2,-3.773263E2,1.9897478E1,-1.0827808E3,4.4399338E2,2.634007E2,-3.9858772E3,3.5759082E3,1.5210455E3,1.317721E2,1.3766327E3,-1.1830074E3,5.1973425E2,3.1265867E3,-1.7537603E3,-4.6928082E2,4.3417437E3,-5.244781E2,-1.2140697E3,1.7233E3,-4.1440018E2,1.0595955E2,-6.6135175E2,-4.7615265E2,8.548661E1,-5.0082733E2,-1.3017415E3,9.348259E2,-8.3696313E2,1.7186367E3,-9.34016E2,-4.7552734E3,-8.7356836E2,4.1660264E3,1.965575E3,-1.9411224E3,2.0797725E3,-1.9519902E3,2.7560086E2,-1.9165817E3,1.569324E3,-5.3652423E2,-2.9950203E3,9.660052E2,2.9932394E1,6.734646E1,4.996425E3,-1.2947478E3,-2.8950647E2,-6.0591693E2,3.5881616E2,1.6193562E2,2.1315508E3,-1.9212704E2,-1.09014635E1,-3.9430923E2,3.5667847E1,1.3163574E3,3.2446158E2,2.4491145E2,-2.1022131E2,-8.6108795E1,5.106091E2,2.774956E2,-2.1851042E2,-5.0437492E1,-2.0665085E2,3.5710274E1,-2.3239284E2,6.295463E1,-2.150731E2,-4.3744418E2,4.0600677E1,5.860138E2,7.2045746E1,-3.5414203E2,3.0835837E2,-5.161563E2,1.1475433E3,-1.0120848E3,2.2405826E2,-8.9098517E2,-1.8911013E3,-3.3019495E2,-2.8848635E1,1.0596705E3,1.9990011E3,5.416639E2,3.1504377E3,-2.3714678E3,-2.627439E2,1.4907202E3,1.912734E2,2.0847166E3,-7.492616E2,3.7315933E2,-3.0186872E1,-6.244928E2,2.088147E3,6.8590256E1,5.9216473E2,-2.5084518E2,4.7959708E2,-2.5664114E2,-1.6731979E3,6.058528E1,5.4651953E2,2.4162944E2,-2.0099997E2],"categories":[],"categories_nodes":[],"categories_segments":[],"categories_sizes":[],"default_left":[0,0,0,0,0,0,0,0,0,0,0,0,0,0,0,0,0,0,0,0,0,0,0,0,0,0,0,0,0,0,0,0,0,0,0,0,0,0,0,0,0,0,0,0,0,0,0,0,0,0,0,0,0,0,0,0,0,0,0,0,0,0,0,0,0,0,0,0,0,0,0,0,0,0,0,0,0,0,0,0,0,0,0,0,0,0,0,0,0,0,0,0,0,0,0,0,0,0,0,0,0,0,0,0,0,0,0,0,0,0,0,0,0,0,0,0,0,0,0,0,0,0,0,0,0,0,0],"id":12,"left_children":[1,3,5,7,9,11,13,15,17,19,21,23,25,27,29,31,33,35,37,39,41,43,45,47,49,51,53,55,57,59,61,63,65,67,69,71,73,75,77,79,81,83,85,87,89,91,93,95,97,99,101,103,105,107,109,111,113,115,117,119,121,123,125,-1,-1,-1,-1,-1,-1,-1,-1,-1,-1,-1,-1,-1,-1,-1,-1,-1,-1,-1,-1,-1,-1,-1,-1,-1,-1,-1,-1,-1,-1,-1,-1,-1,-1,-1,-1,-1,-1,-1,-1,-1,-1,-1,-1,-1,-1,-1,-1,-1,-1,-1,-1,-1,-1,-1,-1,-1,-1,-1,-1,-1,-1,-1,-1],"loss_changes":[2.1264871E10,3.858598E9,1.570874E10,3.450666E9,4.7111475E9,1.4401761E9,1.0451302E10,4.372065E9,3.289983E9,3.996438E9,2.3023442E9,2.2994194E8,1.7858765E9,1.8790859E10,4.7922856E10,1.7573006E9,5.8516214E9,2.2133484E9,3.302184E9,4.885074E9,2.8584468E9,9.126021E8,7.2131296E8,2.4730109E8,2.937032E7,1.565485E9,1.1105175E9,9.543443E9,1.24305E10,2.720499E10,1.253141E10,3.333366E9,1.1315246E9,1.177228E9,5.9848274E9,1.9036918E9,7.22475E8,2.1036974E9,6.1589056E8,8.2637215E9,2.383621E9,6.720415E8,2.239148E9,3.012914E8,1.17056E9,5.860997E8,2.0491976E8,4.7023635E8,3.2237165E8,1.1686704E7,6.0029725E5,1.893204E9,5.902696E8,5.013377E8,2.0511263E9,1.0001187E10,1.0850681E10,1.6013632E9,1.0034803E10,1.0953329E10,3.3736233E10,1.9612969E10,1.4836805E10,0E0,0E0,0E0,0E0,0E0,0E0,0E0,0E0,0E0,0E0,0E0,0E0,0E0,0E0,0E0,0E0,0E0,0E0,0E0,0E0,0E0,0E0,0E0,0E0,0E0,0E0,0E0,0E0,0E0,0E0,0E0,0E0,0E0,0E0,0E0,0E0,0E0,0E0,0E0,0E0,0E0,0E0,0E0,0E0,0E0,0E0,0E0,0E0,0E0,0E0,0E0,0E0,0E0,0E0,0E0,0E0,0E0,0E0,0E0,0E0,0E0,0E0,0E0,0E0],"parents":[2147483647,0,0,1,1,2,2,3,3,4,4,5,5,6,6,7,7,8,8,9,9,10,10,11,11,12,12,13,13,14,14,15,15,16,16,17,17,18,18,19,19,20,20,21,21,22,22,23,23,24,24,25,25,26,26,27,27,28,28,29,29,30,30,31,31,32,32,33,33,34,34,35,35,36,36,37,37,38,38,39,39,40,40,41,41,42,42,43,43,44,44,45,45,46,46,47,47,48,48,49,49,50,50,51,51,52,52,53,53,54,54,55,55,56,56,57,57,58,58,59,59,60,60,61,61,62,62],"right_children":[2,4,6,8,10,12,14,16,18,20,22,24,26,28,30,32,34,36,38,40,42,44,46,48,50,52,54,56,58,60,62,64,66,68,70,72,74,76,78,80,82,84,86,88,90,92,94,96,98,100,102,104,106,108,110,112,114,116,118,120,122,124,126,-1,-1,-1,-1,-1,-1,-1,-1,-1,-1,-1,-1,-1,-1,-1,-1,-1,-1,-1,-1,-1,-1,-1,-1,-1,-1,-1,-1,-1,-1,-1,-1,-1,-1,-1,-1,-1,-1,-1,-1,-1,-1,-1,-1,-1,-1,-1,-1,-1,-1,-1,-1,-1,-1,-1,-1,-1,-1,-1,-1,-1,-1,-1,-1],"split_conditions":[5E-1,2.857143E-1,2.0408163E-2,2.5E-1,1E0,6.310234E-2,4.2857143E-1,1.4285715E-1,1E0,2.857143E-1,1E0,5.9201468E-2,4.7430015E-1,7.1428573E-1,5.714286E-1,1.2804039E-1,2.1982561E-1,4.359798E-1,3.194126E-1,1.4285715E-1,5.9201468E-2,2.857143E-1,1E0,5.714286E-1,1E0,1E0,1.4285715E-1,3.3333334E-1,5.9201468E-2,8.5714287E-1,8.5714287E-1,1.204681E-1,2.1982561E-1,1.3951354E-1,5.714286E-1,1E0,6.406609E-1,2.244898E-1,4.2857143E-1,1E0,2.5E-1,4.979348E-2,1E0,2.244898E-1,3.3088574E-1,2.3336393E-1,3.402937E-1,4.2857143E-1,8.5714287E-1,1E0,6.1266635E-2,1E0,1E0,2.857143E-1,4.2857143E-1,2.857143E-1,6.666667E-1,6.666667E-1,1.4285715E-1,7.1428573E-1,2.8109226E-1,7.1428573E-1,4.2857143E-1,6.734646E1,4.996425E3,-1.2947478E3,-2.8950647E2,-6.0591693E2,3.5881616E2,1.6193562E2,2.1315508E3,-1.9212704E2,-1.09014635E1,-3.9430923E2,3.5667847E1,1.3163574E3,3.2446158E2,2.4491145E2,-2.1022131E2,-8.6108795E1,5.106091E2,2.774956E2,-2.1851042E2,-5.0437492E1,-2.0665085E2,3.5710274E1,-2.3239284E2,6.295463E1,-2.150731E2,-4.3744418E2,4.0600677E1,5.860138E2,7.2045746E1,-3.5414203E2,3.0835837E2,-5.161563E2,1.1475433E3,-1.0120848E3,2.2405826E2,-8.9098517E2,-1.8911013E3,-3.3019495E2,-2.8848635E1,1.0596705E3,1.9990011E3,5.416639E2,3.1504377E3,-2.3714678E3,-2.627439E2,1.4907202E3,1.912734E2,2.0847166E3,-7.492616E2,3.7315933E2,-3.0186872E1,-6.244928E2,2.088147E3,6.8590256E1,5.9216473E2,-2.5084518E2,4.7959708E2,-2.5664114E2,-1.6731979E3,6.058528E1,5.4651953E2,2.4162944E2,-2.0099997E2],"split_indices":[2,4,5,2,7,0,3,4,1,3,1,0,0,4,3,0,0,0,0,3,0,3,4,3,6,6,4,16,0,4,3,0,0,0,3,6,0,5,3,6,2,0,10,5,0,0,0,3,3,16,0,3,1,3,4,4,16,1,3,4,0,3,4,0,0,0,0,0,0,0,0,0,0,0,0,0,0,0,0,0,0,0,0,0,0,0,0,0,0,0,0,0,0,0,0,0,0,0,0,0,0,0,0,0,0,0,0,0,0,0,0,0,0,0,0,0,0,0,0,0,0,0,0,0,0,0,0],"split_type":[0,0,0,0,0,0,0,0,0,0,0,0,0,0,0,0,0,0,0,0,0,0,0,0,0,0,0,0,0,0,0,0,0,0,0,0,0,0,0,0,0,0,0,0,0,0,0,0,0,0,0,0,0,0,0,0,0,0,0,0,0,0,0,0,0,0,0,0,0,0,0,0,0,0,0,0,0,0,0,0,0,0,0,0,0,0,0,0,0,0,0,0,0,0,0,0,0,0,0,0,0,0,0,0,0,0,0,0,0,0,0,0,0,0,0,0,0,0,0,0,0,0,0,0,0,0,0],"sum_hessian":[3.09789E5,1.75434E5,1.34355E5,4.3682E4,1.31752E5,2.379E3,1.31976E5,1.668E3,4.2014E4,1.23441E5,8.311E3,1.53E2,2.226E3,5.1423E4,8.0553E4,6.45E2,1.023E3,3.9037E4,2.977E3,3.5587E4,8.7854E4,7.166E3,1.145E3,1.4E2,1.3E1,1.655E3,5.71E2,3.184E4,1.9583E4,2.3224E4,5.7329E4,8.4E1,5.61E2,4.54E2,5.69E2,3.3635E4,5.402E3,1.232E3,1.745E3,1.3173E4,2.2414E4,1.0259E4,7.7595E4,1.96E3,5.206E3,8.28E2,3.17E2,6.3E1,7.7E1,1E1,3E0,1.21E3,4.45E2,7.9E1,4.92E2,2.055E3,2.9785E4,1.082E3,1.8501E4,1.7118E4,6.106E3,2.9997E4,2.7332E4,7E1,1.4E1,1.31E2,4.3E2,2.35E2,2.19E2,2.4E2,3.29E2,2.7179E4,6.456E3,5.024E3,3.78E2,2.38E2,9.94E2,3.29E2,1.416E3,1.0571E4,2.602E3,9.08E2,2.1506E4,4.191E3,6.068E3,7.4683E4,2.912E3,4.57E2,1.503E3,4.695E3,5.11E2,3.35E2,4.93E2,2.68E2,4.9E1,2.4E1,3.9E1,3.1E1,4.6E1,6E0,4E0,2E0,1E0,9.67E2,2.43E2,4.38E2,7E0,1.1E1,6.8E1,1.63E2,3.29E2,1.18E2,1.937E3,8.334E3,2.1451E4,1.063E3,1.9E1,4.289E3,1.4212E4,1.5012E4,2.106E3,3.34E3,2.766E3,1.5848E4,1.4149E4,1.2966E4,1.4366E4],"tree_param":{"num_deleted":"0","num_feature":"17","num_nodes":"127","size_leaf_vector":"1"}},{"base_weights":[1.7405896E-1,1.6814084E2,-2.1200116E2,8.722919E0,5.958448E2,-2.1593495E2,9.759643E3,4.3260914E1,-6.835155E2,-7.558587E2,7.284909E2,-6.765834E2,-1.6696404E2,1.8066505E3,6.002396E3,-2.0814684E2,1.3063884E2,-8.92251E2,9.656727E2,-1.0105586E3,5.9357485E3,1.1654177E3,1.5565968E2,-4.1695676E2,-1.5569547E3,4.5689533E1,-2.6435956E2,-3.0235156E2,7.858805E2,7.202222E2,1.4337761E1,-1.7171328E3,-7.448181E2,3.4584607E3,6.7055896E2,-3.2375388E2,-1.9813226E3,-2.4480088E3,7.9838193E3,6.4898584E2,2.2437007E3,8.624754E2,-1.8449123E2,-7.9034452E0,-9.3264264E2,-1.8235936E3,2.0722003E2,-2.575802E2,4.4205148E2,-5.3128326E2,-1.3157092E1,-4.9549927E1,-3.177042E2,1.0074751E3,1.046287E2,8.5361285E2,1.4510452E2,-6.584543E1,7.204855E1,-1.5561537E2,-5.682567E2,-2.393986E2,2.4185564E2,1.9560692E3,4.6336328E2,3.3502338E2,-6.423769E1,-6.472924E2,1.7854114E2,-1.1947015E2,-1.3920824E3,-9.4638666E2,2.8125593E3,1.3990458E3,3.6604783E3,4.071886E2,-8.0977E1,1.3754219E3,4.78003E2,-1.0553326E3,2.9948846E2,-6.494983E1,2.288173E3,-1.03006905E2,1.7126128E3,-3.4891327E2,1.3905843E2,-4.306316E2,-7.872906E2,-3.3114487E2,1.6598248E3,-9.746496E1,2.723681E2,4.390837E2,5.391899E1,-1.1116807E2,-3.4520013E2,1.9450229E2,-1.1961272E2],"categories":[],"categories_nodes":[],"categories_segments":[],"categories_sizes":[],"default_left":[0,0,0,0,0,0,0,0,0,0,0,0,0,0,0,0,0,0,0,0,0,0,0,0,0,0,0,0,0,0,0,0,0,0,0,0,0,0,0,0,0,0,0,0,0,0,0,0,0,0,0,0,0,0,0,0,0,0,0,0,0,0,0,0,0,0,0,0,0,0,0,0,0,0,0,0,0,0,0,0,0,0,0,0,0,0,0,0,0,0,0,0,0,0,0,0,0,0,0],"id":13,"left_children":[1,3,5,7,9,11,13,15,17,19,21,23,25,-1,-1,27,29,31,33,35,37,39,41,43,45,47,49,51,53,55,57,59,61,63,65,67,69,71,73,75,77,79,81,83,85,87,89,91,93,95,97,-1,-1,-1,-1,-1,-1,-1,-1,-1,-1,-1,-1,-1,-1,-1,-1,-1,-1,-1,-1,-1,-1,-1,-1,-1,-1,-1,-1,-1,-1,-1,-1,-1,-1,-1,-1,-1,-1,-1,-1,-1,-1,-1,-1,-1,-1,-1,-1],"loss_changes":[1.1040453E10,1.1789566E10,5.371491E9,3.0115715E9,8.418422E9,3.0865285E9,1.9478656E9,2.6355983E9,2.0615063E9,7.157458E9,1.0700517E10,3.00456E9,2.5616525E9,0E0,0E0,2.897898E9,6.104909E9,6.44981E8,4.927774E8,2.6949286E9,2.6638054E9,1.3504618E10,4.448243E9,2.1421188E9,1.4087485E9,4.6704225E9,5.6880046E9,2.9339162E9,3.011176E9,7.3725097E9,3.9267287E9,1.698281E8,3.7261926E8,4.0598714E8,2.3826342E8,3.993387E9,7.048826E9,2.8856272E8,1.6796462E9,1.0675317E10,1.1950506E10,3.5795937E9,3.124895E9,1.0863553E10,1.4455252E9,8.0462234E8,2.7569994E9,1.7269128E9,4.513012E9,4.0938353E9,1.1146353E10,0E0,0E0,0E0,0E0,0E0,0E0,0E0,0E0,0E0,0E0,0E0,0E0,0E0,0E0,0E0,0E0,0E0,0E0,0E0,0E0,0E0,0E0,0E0,0E0,0E0,0E0,0E0,0E0,0E0,0E0,0E0,0E0,0E0,0E0,0E0,0E0,0E0,0E0,0E0,0E0,0E0,0E0,0E0,0E0,0E0,0E0,0E0,0E0],"parents":[2147483647,0,0,1,1,2,2,3,3,4,4,5,5,6,6,7,7,8,8,9,9,10,10,11,11,12,12,15,15,16,16,17,17,18,18,19,19,20,20,21,21,22,22,23,23,24,24,25,25,26,26,27,27,28,28,29,29,30,30,31,31,32,32,33,33,34,34,35,35,36,36,37,37,38,38,39,39,40,40,41,41,42,42,43,43,44,44,45,45,46,46,47,47,48,48,49,49,50,50],"right_children":[2,4,6,8,10,12,14,16,18,20,22,24,26,-1,-1,28,30,32,34,36,38,40,42,44,46,48,50,52,54,56,58,60,62,64,66,68,70,72,74,76,78,80,82,84,86,88,90,92,94,96,98,-1,-1,-1,-1,-1,-1,-1,-1,-1,-1,-1,-1,-1,-1,-1,-1,-1,-1,-1,-1,-1,-1,-1,-1,-1,-1,-1,-1,-1,-1,-1,-1,-1,-1,-1,-1,-1,-1,-1,-1,-1,-1,-1,-1,-1,-1,-1,-1],"split_conditions":[5.714286E-1,7.5E-1,1E0,1E0,1.4285715E-1,1.4285715E-1,6.666667E-1,2.857143E-1,1E0,1E0,1E0,8.5714287E-1,4.2857143E-1,1.8066505E3,6.002396E3,1E0,4.2857143E-1,8.163265E-2,2.857143E-1,3.5176685E-1,1.73933E-1,7.1428573E-1,4.2857143E-1,2.944011E-1,1E0,5E-1,7.1428573E-1,4.7430015E-1,2.0835246E-1,6.122449E-2,7.1428573E-1,6.700321E-2,3.4993115E-1,2.244898E-1,8.5714287E-1,1.9114272E-1,1E0,5.3061223E-1,1E0,4.2857143E-1,2.857143E-1,5.7365764E-2,1E0,2.8866452E-1,1E0,7.5E-1,7.5E-1,1E0,6.666667E-1,1E0,8.5714287E-1,-4.9549927E1,-3.177042E2,1.0074751E3,1.046287E2,8.5361285E2,1.4510452E2,-6.584543E1,7.204855E1,-1.5561537E2,-5.682567E2,-2.393986E2,2.4185564E2,1.9560692E3,4.6336328E2,3.3502338E2,-6.423769E1,-6.472924E2,1.7854114E2,-1.1947015E2,-1.3920824E3,-9.4638666E2,2.8125593E3,1.3990458E3,3.6604783E3,4.071886E2,-8.0977E1,1.3754219E3,4.78003E2,-1.0553326E3,2.9948846E2,-6.494983E1,2.288173E3,-1.03006905E2,1.7126128E3,-3.4891327E2,1.3905843E2,-4.306316E2,-7.872906E2,-3.3114487E2,1.6598248E3,-9.746496E1,2.723681E2,4.390837E2,5.391899E1,-1.1116807E2,-3.4520013E2,1.9450229E2,-1.1961272E2],"split_indices":[5,2,2,7,4,4,1,4,1,1,6,3,4,0,0,1,4,5,4,0,0,3,4,0,1,2,4,0,0,5,4,0,0,5,4,0,16,5,3,3,4,0,2,0,1,2,2,1,16,3,4,0,0,0,0,0,0,0,0,0,0,0,0,0,0,0,0,0,0,0,0,0,0,0,0,0,0,0,0,0,0,0,0,0,0,0,0,0,0,0,0,0,0,0,0,0,0,0,0],"split_type":[0,0,0,0,0,0,0,0,0,0,0,0,0,0,0,0,0,0,0,0,0,0,0,0,0,0,0,0,0,0,0,0,0,0,0,0,0,0,0,0,0,0,0,0,0,0,0,0,0,0,0,0,0,0,0,0,0,0,0,0,0,0,0,0,0,0,0,0,0,0,0,0,0,0,0,0,0,0,0,0,0,0,0,0,0,0,0,0,0,0,0,0,0,0,0,0,0,0,0],"sum_hessian":[3.09789E5,1.72908E5,1.36881E5,1.2596E5,4.6948E4,1.36828E5,5.3E1,1.19975E5,5.985E3,4.195E3,4.2753E4,1.3147E4,1.23681E5,4E1,1.3E1,3.0943E4,8.9032E4,5.313E3,6.72E2,4.042E3,1.53E2,2.4253E4,1.85E4,1.0154E4,2.993E3,3.8852E4,8.4829E4,2.8265E4,2.678E3,1.4668E4,7.4364E4,8.04E2,4.509E3,7E1,6.02E2,2.368E3,1.674E3,3E1,1.23E2,1.64E4,7.853E3,6.01E3,1.249E4,5.663E3,4.491E3,2.6E3,3.93E2,2.2011E4,1.6841E4,4.1127E4,4.3702E4,2.3928E4,4.337E3,3.88E2,2.29E3,1.468E3,1.32E4,3.6535E4,3.7829E4,1.04E2,7E2,4.36E3,1.49E2,2.6E1,4.4E1,4E2,2.02E2,7.9E2,1.578E3,1.05E3,6.24E2,2.9E1,1E0,7E1,5.3E1,9.261E3,7.139E3,1.706E3,6.147E3,1.8E2,5.83E3,1.244E4,5E1,5.35E3,3.13E2,3.855E3,6.36E2,1.753E3,8.47E2,3.16E2,7.7E1,2.081E4,1.201E3,3.44E3,1.3401E4,3.2655E4,8.472E3,1.6092E4,2.761E4],"tree_param":{"num_deleted":"0","num_feature":"17","num_nodes":"99","size_leaf_vector":"1"}},{"base_weights":[1.9257174E-1,-1.3310262E2,1.7233734E2,-3.9640015E1,-7.567996E2,3.364806E2,-1.25198326E2,-1.6215378E2,2.9166995E2,-2.9845717E0,-1.2618693E3,-1.4246497E2,6.478555E2,-5.6140356E2,2.9194543E2,2.1607956E1,-4.1286206E2,-1.3879459E3,4.2024258E2,9.084534E2,-3.908967E2,-8.07134E2,-2.5832126E3,-4.2215417E2,7.0056834E0,1.8807855E2,9.780719E2,-1.0337161E3,3.5521643E2,-2.5086407E1,9.732238E2,-2.4065892E2,4.1343784E2,-6.0005914E2,1.6080305E1,-2.8363684E3,-4.0960922E2,1.0782465E3,1.756655E2,-5.408692E2,2.2855933E3,-8.9348486E2,5.708038E2,-1.0400576E3,2.7532132E2,-4.5159565E3,-6.50096E2,-1.0531646E3,-2.8220172E2,-1.3024867E2,5.5263367E2,7.008518E2,-1.3030049E2,5.804517E2,1.7857677E3,-7.863269E2,-3.830356E3,4.0552435E2,-5.6916875E3,2.4445634E2,-5.290219E2,3.3607257E2,2.205706E3,-7.5869E1,9.986436E2,1.8722092E2,-5.947068E2,-9.784285E1,-2.845327E2,-9.124463E1,2.080526E2,-4.3440317E2,-1.563645E3,1.6225172E2,-5.5638995E2,1.380435E2,6.559464E2,7.507501E2,3.9503754E1,-8.0497034E2,